nep4 4 B As Si C 
cutoff 6 5 126 75
n_max 12 10
basis_size 12 10
l_max 4 2 0
ANN 50 0
  4.8018441e+00
 -1.9063032e+00
  1.1392771e+00
  1.4098666e+00
  5.6992799e-02
  1.1034869e-02
 -2.1934304e-01
 -1.2985393e+00
 -3.5987863e-01
 -2.4633686e-01
  1.5248302e-01
 -8.6256188e-01
 -1.6320214e+00
  1.2103956e+00
 -6.2931252e-01
 -1.5493661e+00
  2.4646854e-03
 -2.1617529e-03
  1.5298921e+00
 -7.2811347e-01
  9.3312687e-01
 -8.7113851e-01
  1.4137315e-02
 -1.8225423e-01
 -1.5829551e-01
  2.9451635e-03
  2.1776255e-02
  3.3711825e-02
  6.1135832e-02
 -1.8133619e-01
 -1.2632184e+00
 -3.3452304e-03
 -1.5454289e-01
  6.9400716e-01
  3.9324444e-02
  3.3391621e-02
  2.1556576e-03
  6.0246844e-04
 -1.7102604e-01
  5.3959215e-01
  5.5455279e-01
 -1.0040660e+00
  6.2436581e-04
 -1.0736301e+00
 -1.3271908e-02
 -7.5482507e-03
  1.0008277e-01
 -5.4925302e-04
 -2.9636703e+00
  1.2391329e-02
 -6.3552536e-02
  1.3665288e-03
 -6.0869351e-02
 -2.5266924e+00
  1.6361940e-01
 -2.6776084e-01
  1.0756918e-02
  7.5926669e-03
  1.2066839e-02
 -1.1655690e-02
 -6.6209614e-04
 -4.0256004e-03
 -2.1099837e-01
 -1.6700451e+00
  8.8967998e-03
 -1.8798497e-02
 -6.2856451e-03
  4.5134705e-01
  1.6577409e-01
  5.8380151e-01
 -6.9154918e-01
  1.8804545e+00
 -2.1545973e+00
 -5.2735865e-01
  1.1338864e-01
  1.8164931e-01
  1.1650095e+00
  2.0602712e-01
  1.9743425e+00
 -2.6835334e-01
  1.9761574e-01
  1.2407358e+00
  3.4829946e-03
 -4.9605832e-02
  1.3983631e-01
 -5.5730408e-01
 -6.7888999e-01
  1.2737166e+00
  3.6214199e-02
 -9.7462729e-02
 -3.3409944e-01
  6.9328666e-01
  4.9887756e-03
 -2.3655094e-02
 -9.5373720e-02
 -9.3937357e-04
  3.2248781e+00
  4.9710530e-01
 -9.6760243e-01
  3.7427434e-01
 -7.4196071e-03
  3.4584546e+00
 -9.9268388e-03
 -2.1746341e-02
 -1.4231743e-02
 -6.1304450e-01
  4.3144700e-04
 -4.4384380e-04
 -1.7123401e+00
  1.5688399e+00
  7.9749059e-03
  1.1220517e-02
 -2.1781476e-01
 -5.1297468e-01
 -1.0608517e-02
  1.3640395e-02
  1.7418841e-01
  4.1381801e-03
  6.4760381e-01
 -8.9774661e-02
 -2.2279203e-01
  1.7786653e-01
 -8.2447380e-02
 -2.9217982e-01
 -1.3325204e+00
 -3.9008043e-03
 -1.5844772e-02
 -5.0078910e-03
  2.3751751e-02
 -3.3107560e-02
  1.1580092e-03
  1.4947986e-02
 -1.8913658e+00
 -7.3900633e-03
 -1.1803720e-02
  1.7744646e-03
 -5.6876973e-03
  4.7932989e-03
  3.7219794e-03
 -1.6039586e-02
 -3.1394348e-03
 -7.0536710e-02
  4.0461534e-01
 -2.3569504e-02
 -4.0200117e-05
 -4.9602767e-03
  7.7744521e-04
 -1.0668608e+00
 -1.2352324e-01
 -1.2199742e-02
  2.2071730e-03
 -2.0861812e+00
 -2.1142336e-03
 -1.3660780e-03
 -3.9902799e-02
 -7.8570796e-03
 -3.1801331e-04
 -2.1605771e-03
  6.5131835e-03
  3.1101809e+00
 -1.6175768e-03
 -1.0307212e-03
  2.0411257e-02
  7.2940469e-02
  1.0279622e-03
 -7.5897379e-03
  1.2135971e-03
 -5.5418480e-03
 -7.1036941e-03
  6.1659366e-03
 -1.7923985e-02
  1.7834401e-04
 -1.4753103e+00
  7.3657539e-03
 -5.5945339e-03
  3.3656128e-02
  1.1127874e-02
 -1.7459053e-01
  1.6494957e-03
 -5.4286709e-03
 -9.3981024e-04
  5.0666815e-05
  3.1322613e-03
  6.6671609e-03
  3.1670609e-03
 -5.5600605e-03
  3.0636285e-03
 -2.0118035e-02
 -5.5020386e-03
 -5.9174905e-03
 -2.6674423e-01
  1.6259765e-03
  1.6675357e-04
  6.6373874e-03
  2.2485642e+00
 -1.6771266e-03
 -1.1669133e-03
  2.7615359e-02
  2.2190157e-02
  4.5081852e-03
 -3.3045486e-03
 -2.9166981e-03
 -5.8410270e-03
 -6.0848738e-03
  1.1132975e-03
  8.1068031e-02
  6.7473287e-03
  2.2557167e-02
  8.9455955e-03
  7.0851631e-03
  3.2273073e-02
 -1.4902095e-01
  1.9230999e-01
  7.0453598e-03
 -1.3093591e-03
  1.8025397e-03
 -2.4441874e-03
 -6.3109831e-03
  3.1460850e-03
 -6.6484036e-03
 -3.4555725e-03
 -2.2907427e-02
  1.2126628e-01
  3.2530287e-03
 -4.4436594e-03
 -7.4894709e-04
  4.6486583e-01
  3.4058471e-03
 -1.4806340e-03
 -8.6014636e-04
 -2.1175604e-01
  3.3541098e-03
  6.0730828e-03
  2.8723006e+00
 -2.9477638e-03
  1.6575037e-03
  3.0898482e-02
  9.1031538e-03
 -8.6114177e-04
 -7.9585966e-03
  1.6598370e-03
  3.0556688e-04
 -6.2464294e-03
  1.0127732e-04
 -6.4817821e-03
 -3.8140368e-02
 -4.4041455e-02
  1.9949798e-02
 -9.3672461e-05
 -5.1983711e-03
 -2.1787745e-01
  2.7470879e-04
  4.1545010e-03
 -1.3383634e-02
  6.5388144e-03
  2.4229643e-01
  6.6841445e-03
 -2.8800862e-03
  8.8852905e-03
 -1.9385045e-02
  1.7619743e-03
  1.8800770e-04
  4.1527404e-03
 -1.8078738e-03
 -2.2914002e-02
 -4.0484960e-03
 -8.9426506e-03
 -2.2771293e-03
 -2.1473508e-02
 -1.8124285e+00
 -7.6566532e-04
 -9.7452365e-03
 -2.8185612e-01
 -1.5313770e+00
  1.7232158e+00
 -3.0940318e-01
  2.3000391e+00
 -1.0696762e+00
  4.3676341e-01
 -4.4239071e-01
 -5.9716374e-01
 -1.9302477e-01
 -7.2129405e-01
  4.9882519e-01
 -1.7125540e+00
  5.6383204e-01
  7.2746843e-01
 -1.0683541e+00
  7.6932213e-03
 -5.5563492e-01
 -6.1381012e-01
 -8.5183209e-01
 -1.0457273e+00
 -4.7193745e-01
  2.0773646e-01
 -1.1934160e+00
 -9.6551441e-03
 -2.3711240e+00
 -3.5835630e-01
 -1.0146521e-03
 -3.7324777e-01
  5.5547975e-02
 -1.4225346e+00
  8.5439131e-02
  5.0268787e-01
  6.2533104e-01
 -4.4846246e-01
 -5.3406749e-02
 -1.7734536e+00
 -1.1522637e-01
 -2.4553103e+00
 -7.8135565e-02
 -1.1271324e+00
  6.8249828e-01
  3.4235809e-02
 -1.4140508e+00
 -3.8369250e-02
 -4.9063408e-01
  5.7765132e-01
  1.4038496e-01
 -1.5193197e-01
  2.6443467e+00
 -1.0620309e+00
  1.1375824e+00
  5.7562548e-01
 -7.2953397e-01
  1.9049840e+00
  8.9361221e-02
  2.2922621e+00
  1.5017141e-01
 -6.6944942e-02
  2.4928531e-01
  6.5083396e-01
  9.9382687e-01
  4.7014347e-01
 -3.9549395e-01
 -2.9878585e-02
 -1.8686017e-02
  4.7741472e-04
  3.3895183e-01
  1.3270977e+00
 -1.9373848e+00
  2.1345890e+00
  1.5043479e+00
 -4.1621070e-02
  2.9168725e-01
  1.6435854e-04
 -2.2663777e-01
  3.4268339e+00
  6.6557312e-01
 -5.7767314e-01
  2.2474921e+00
 -2.1031418e+00
  4.4426925e-02
  8.4161870e-02
 -1.3081255e+00
  1.4391232e+00
  9.2647505e-01
 -2.5238552e+00
 -1.5483194e-02
  4.0824196e-01
  6.6900584e-03
  4.0301526e-01
 -1.0068763e-01
 -4.0732524e-01
  1.6484231e+00
 -6.5494321e-02
 -8.8269490e-01
  9.7246152e-01
  1.1460630e+00
 -3.1806428e-02
  4.0894178e-01
 -3.5738931e-03
 -3.2176623e+00
 -1.7944695e+00
  4.3106256e+00
  1.1343779e-03
 -1.1558574e-01
  1.5761314e-01
  1.1140371e-01
  4.3686457e-02
  2.3579321e+00
 -2.0889789e-05
 -3.8893655e-01
  5.8179367e-03
  1.1005342e+00
  2.6847357e-02
 -2.6082930e-03
 -3.2221377e-02
 -5.9567280e+00
  1.6738556e-01
 -3.7185085e-01
  2.2735782e+00
  3.5056952e-02
  1.3603566e+00
 -1.7259172e-01
 -1.4898984e+00
 -1.4619735e-03
 -3.4740714e-03
 -8.5783945e-03
  1.1342813e-03
 -3.8956545e-02
 -1.4975145e-01
 -6.4366853e-01
 -5.8137863e-03
  8.1198523e-03
 -4.1447105e-03
  1.9055760e-01
 -3.6539873e-01
  4.2280465e-01
 -6.9215775e-01
 -2.2153671e-01
  1.1795606e-01
  7.3694825e-01
 -2.0370837e-02
  1.2733234e+00
  1.6457953e+00
  3.8629506e-02
 -1.0291053e+00
 -1.3785882e-01
 -2.6121229e-01
 -7.1410477e-01
  3.8817507e-01
  2.9333387e-02
  1.2780493e-01
  6.0101318e-01
  5.5724114e-01
 -3.2514822e-02
 -1.2880324e-01
  1.1395583e+00
 -2.4114993e+00
 -1.3043704e+00
 -6.1995554e-01
  4.8369199e-01
 -1.1655036e-03
 -2.0239970e-03
 -4.2421797e-01
 -3.1448209e-01
 -8.1583120e-02
  9.9194131e-04
  1.0419086e+00
 -9.8262346e-01
 -8.3122873e-01
 -7.6006222e-01
 -1.8367849e-03
  1.9784509e-01
 -2.3751965e-01
 -1.6514821e+00
  2.0922330e-04
  1.1229148e-02
 -1.6177447e-01
 -1.9838452e+00
 -1.7002581e-01
  5.4125834e-01
 -2.4208941e+00
 -1.3312721e+00
  9.5325105e-02
  9.6128863e-01
 -1.1316738e+00
 -5.4974463e-02
  3.2184612e-02
  1.0257454e+00
 -7.2415668e-01
 -6.7819446e-01
  6.6017151e-02
 -1.2768662e-01
 -5.3166810e-02
 -4.2094836e-01
  1.1648337e+00
 -2.5650361e-03
 -8.1124589e-02
 -7.0712018e-01
 -3.9246401e-01
 -1.3003317e+00
  1.1164553e+00
  2.2571595e-01
  5.8062617e-03
 -9.9429768e-01
 -7.5053133e-04
  1.3760618e+00
  3.8564828e-01
  2.5912282e-01
  6.2916644e-02
 -1.9820886e+00
 -1.7549594e-01
 -1.0212656e+00
  8.9779770e-01
  8.5801810e-01
 -8.2447100e-03
  1.8607703e-01
 -4.4490203e-01
  1.0297430e-01
  3.8199720e-03
  1.3857630e-01
  1.7889011e-01
 -8.8465074e-03
 -2.1254379e-02
 -1.1101793e-02
 -5.1505840e-01
  7.6987982e-01
  5.3145522e-01
 -2.3132938e-01
 -1.0304897e+00
 -1.4642274e-01
  1.7974958e-01
 -2.4182837e-01
  2.1855947e-01
 -3.1678399e-01
  1.4610865e+00
 -5.5627797e-02
  1.3565003e+00
 -5.1799916e-02
  4.8875123e-02
  5.4397357e-01
  1.2057030e+00
 -1.5004195e-02
 -1.2073000e-03
  5.0047189e-01
  1.1963404e-02
  1.3437180e-01
  1.3533367e-01
  1.1023065e+00
  2.1081273e-02
  8.5655199e-03
 -2.2840038e-02
  9.7782747e-04
  5.9632376e-02
 -3.1448748e-02
  3.3850220e-01
  8.7073026e-03
  3.6412030e-01
  2.2392583e-01
 -1.0174737e-02
 -4.4033101e-01
 -5.0512250e-03
  1.0174041e-03
  5.4236208e-03
 -3.1022320e-04
 -3.9208066e-03
  1.1932410e-02
 -6.2639231e-04
  2.5917685e-01
  6.7544676e-02
  1.4779679e-03
 -3.3168414e-01
 -7.3880267e-01
 -2.1877477e-01
 -2.3043592e+00
  1.8185487e-02
  1.5997770e-01
  2.6998804e-03
 -8.4253669e-01
 -1.5573303e-02
 -1.1010858e-01
 -2.7289906e-01
  5.4459876e-01
 -5.6679147e-01
  3.2507507e-03
 -7.7883470e-01
  4.2258272e-01
 -1.0712260e-01
 -2.8188172e-01
 -1.1174151e-01
  1.3026611e-03
 -5.5491063e-04
 -2.3507316e-02
  4.0326314e-03
 -1.6374117e-03
  1.7482710e+00
  5.9112338e-03
  2.6474403e-02
  6.4961493e-01
 -7.3645508e-01
 -8.6159064e-03
 -3.3239234e-02
 -3.5064979e-04
  1.0929414e+00
  1.4904437e+00
 -7.7373073e-03
 -7.8220768e-03
  2.4443848e+00
  5.4633964e-02
  2.5034975e-03
 -3.1686115e-01
 -1.8794099e-03
 -1.0339589e+00
 -2.6533261e-01
  2.9854026e-01
  8.4717758e-03
  2.8267577e-02
 -4.3605690e+00
  4.8402105e-03
  5.1000607e-01
 -1.3114744e-01
 -5.2120660e-02
  5.0532454e-01
 -1.8908140e-03
 -2.5717858e-02
 -4.3163890e-01
  8.5542303e-01
 -1.6354592e-01
  1.6180474e-03
  1.3254001e+00
 -2.7048097e-03
  2.0213792e-02
  6.1469828e-03
 -5.8399802e-01
  2.2545259e-01
 -3.0020583e-02
 -9.8100854e-03
 -2.3828929e-02
 -8.4003061e-02
  2.1824881e-01
 -5.0022739e-01
  1.2603049e+00
 -7.1545058e-01
 -1.8202778e+00
  7.1930331e-01
  1.0990503e-01
  7.6635689e-01
 -2.7837873e+00
  1.6111149e+00
 -1.0425602e+00
  9.6697015e-01
  1.2084857e-01
  1.3371292e-01
  2.5833642e-01
  4.2036834e-01
 -9.8465174e-02
  1.4758528e+00
 -1.6437967e-01
  1.5503779e-01
 -1.0425389e+00
 -1.1970286e+00
 -1.2847863e-01
 -4.2494354e-01
 -1.9682455e-01
  1.1779450e-01
 -2.6609681e+00
 -8.0403108e-03
 -1.9504775e-01
 -5.1459008e-01
 -4.7682878e-02
 -3.1626865e-01
  1.1637969e+00
 -5.8619410e-01
  4.1108388e-01
  1.4911236e+00
  5.2305977e-03
  7.6346546e-02
  4.4170069e-03
 -1.5916033e+00
  1.4700812e-01
 -2.5833943e+00
 -2.9566507e+00
 -9.9982476e-01
  1.3502105e-01
  8.1473315e-01
  1.1360709e-01
 -1.4009728e-01
 -4.0742201e-01
 -6.4310431e-02
  6.5546829e-01
  5.5772603e-01
 -1.4076598e-01
 -3.6704546e-01
  2.6909435e+00
 -2.5601181e-01
 -9.3352240e-01
  8.4023163e-02
  7.5947350e-01
 -7.1974146e-01
  5.2652991e-04
 -6.2699544e-01
  2.0109520e+00
  5.3040987e-01
  6.2060803e-01
 -3.5164404e-01
 -4.7547895e-01
 -1.2364985e+00
  1.1990093e+00
  1.1763455e+00
 -6.2091630e-03
 -4.8501566e-01
  1.8819871e+00
 -4.2676210e-02
 -6.6330299e-02
 -1.5096363e-03
 -2.4096196e+00
  4.3902888e+00
  9.2884189e-01
  3.5145548e-01
 -6.3940901e-01
  4.9994549e-01
 -1.8295571e+00
 -5.9680152e-01
 -2.3963125e+00
 -9.3780702e-01
  1.5817469e-01
  4.1696113e-01
  2.0090699e-02
 -2.5598738e-01
  1.3691916e-01
  1.8963014e-01
  6.5942931e-01
  4.0269905e-01
 -1.1371264e+00
  7.7993409e-03
 -1.0894896e+00
 -1.8151711e-01
  4.6636280e-01
  3.6312866e-01
  1.6190626e-01
  4.5810106e-01
 -1.8085684e+00
 -1.1153654e+00
 -7.7700682e-02
  5.2885133e-01
 -1.6914597e-01
  4.9744383e-02
 -1.2869208e-01
  2.3082743e+00
  8.4669709e-02
 -1.2537064e-03
 -2.1468933e-01
 -1.5487769e+00
  1.2770350e-01
  3.3560404e-01
  1.3488488e-01
 -8.1674236e-01
 -2.2441807e+00
  3.2326320e-01
  6.0188931e-01
  5.6703168e-01
  3.2511553e-01
  3.7888092e-01
  3.4348285e-01
 -3.4441051e-04
  8.9302603e-03
 -3.2078579e-01
  2.3568629e-01
 -1.7112526e-01
  2.6006478e-01
  2.1148667e+00
 -5.8199028e-03
 -1.1476446e-02
 -1.0492435e+00
 -1.5053902e+00
 -3.7704878e-02
  1.7287184e+00
  1.0981295e-01
  2.0439456e+00
 -2.2270393e-01
 -2.1819496e+00
 -1.0393449e+00
 -4.3187001e-01
 -4.7365651e-01
  7.8794926e-01
 -8.2999671e-01
 -1.7407699e+00
  1.4981364e-01
  1.1730089e+00
  1.9666943e-01
  7.8873414e-01
  1.8998997e-02
 -1.3370464e+00
 -4.0487733e-02
  5.5608016e-02
 -6.9391412e-01
  2.5227723e-01
  6.5661281e-01
 -1.9456637e-01
  1.1208321e+00
 -2.6086519e+00
  1.0826015e+00
  3.7618689e-03
  4.3616006e-01
  5.1720798e-01
  3.9917445e+00
  3.3516269e-02
  1.4869073e-01
  6.0168654e-01
 -7.2656053e-01
  6.2474793e-01
 -4.3243635e-02
  1.4733878e+00
 -2.2287159e+00
 -6.0048366e-01
 -9.7761136e-03
  6.7884880e-01
 -3.8221008e-01
  8.6317956e-02
 -1.4295751e-03
  6.8078315e-01
  8.0521619e-03
  1.9216601e-02
  1.2674632e+00
  6.3292399e-02
  2.9515526e-01
 -1.4399880e+00
 -7.0454949e-01
  1.4952044e-01
  1.0901139e+00
  9.5630562e-01
 -1.2897944e+00
  1.1546577e+00
  3.1816645e-03
  5.4925054e-01
  4.5864610e-03
 -1.8717843e-04
  5.4451294e-02
  1.3421828e+00
  6.2955095e-04
  5.5246199e-03
  1.6000539e-02
 -5.9514600e-01
 -3.1303488e-02
  6.8575263e-01
  1.7135549e-02
  2.2693535e-03
 -1.0703908e-04
 -1.1267664e-01
 -4.5994934e-01
 -9.2991613e-02
  2.2288008e-02
  2.8972423e-02
  1.6762919e-03
 -1.5295273e-01
  3.4762921e-03
 -7.4752513e-03
 -7.1192095e-03
  4.2879920e-02
 -6.3721747e-03
  6.9506391e-04
  4.0706053e-01
  9.5408009e-03
  2.5751807e-03
 -4.7892178e-03
 -1.3601943e-03
 -6.8239826e-03
  5.9096678e-03
 -1.6775658e-02
  3.6674282e-03
  9.7318797e-04
 -2.6276392e-01
 -8.1244922e-01
 -2.5181628e-03
 -2.0774741e-01
 -5.0620700e-04
  8.0637358e-02
 -1.9619778e-02
  2.0659408e-03
 -5.8038556e-03
 -1.3290667e-03
 -1.0703262e+00
 -1.7740749e-03
  8.0980053e-03
  5.4556839e-03
  1.3680541e-03
  4.1886054e-02
 -8.0174133e-03
 -2.4460827e-03
  3.1711904e-03
  1.4157761e-02
 -1.9564752e-02
 -3.5608132e-04
 -1.8307408e-02
 -6.0323540e-02
  6.0663689e-03
 -3.0312587e-02
 -6.1492884e-01
  4.9349046e-03
 -1.8043563e-02
  5.7407171e-03
 -1.0853091e-03
  2.7619751e-02
  3.2230604e-03
 -7.8895213e-03
 -1.0763236e-03
 -7.0026806e-03
  1.1149161e-02
  2.6958617e-03
 -1.4749338e-02
 -5.4607634e-03
  6.9228970e-02
 -8.6410761e-01
  5.3141999e-01
 -1.4066510e+00
  1.4532356e+00
  4.7175029e-01
 -4.6412185e-01
  4.0655693e-01
  3.0484304e-01
  1.4435811e+00
 -2.5733476e+00
 -3.7186298e-01
  5.8779472e-01
 -3.2889687e-03
  3.9054796e-02
  1.0701574e-01
  1.4847788e+00
  4.4564363e-01
 -6.9766605e-01
  3.4402430e+00
 -3.8584592e+00
  5.1454103e-01
 -6.4703542e-01
  1.0410254e+00
  9.4430172e-01
 -3.9130397e-02
 -6.7031479e-01
  4.2180741e-01
 -1.5754326e-01
 -6.9696826e-01
  4.1086972e-01
  1.2504145e+00
  1.9210836e-02
  3.7884623e-01
  1.0955982e+00
  1.9617471e+00
 -3.6585163e-03
  6.0648847e-02
  8.4406430e-01
 -1.1928022e+00
 -1.7855282e-01
 -1.5659101e+00
  6.8051529e-01
 -8.3034611e-01
  2.6508341e-02
  8.8629429e-04
 -9.4002593e-01
  6.2054410e-03
 -6.7748171e-01
 -1.6527348e+00
  2.9510468e-01
  6.3238138e-01
 -2.2761202e-01
  2.5626974e+00
 -2.4305477e+00
 -1.9632174e-02
  3.1787896e+00
  2.4423202e-02
  1.1109326e-02
 -2.1379681e-01
 -1.3114301e-02
 -9.6550095e-05
  4.2492822e-01
  1.6412945e-02
  1.3995225e-02
  3.4685284e-02
 -1.9176592e-03
  2.3156483e-01
  6.9072533e-01
 -3.0184560e+00
 -1.2785724e-02
  2.7301145e-01
 -6.0526061e-01
  1.3750391e-02
  1.8531736e+00
 -1.6166770e+00
  8.9030600e-01
  8.3261207e-02
  1.4825982e+00
 -5.1482821e-01
 -6.0041051e-02
  9.3351072e-01
  1.5459542e-01
 -8.7159872e-01
 -1.2458521e-03
 -4.6558616e-01
  1.0120905e-01
  2.0631891e-01
 -7.0029932e-01
  5.6401700e-01
  5.6251045e-02
 -8.1838936e-01
  4.7600839e-01
 -1.6222559e-01
  9.6911120e-01
  5.1575929e-01
  1.1010421e-01
 -5.7849449e-01
 -1.0867345e+00
 -1.6125542e-01
  1.5794395e-01
  2.1879456e+00
  2.5961006e-01
  1.2039098e+00
  4.9110093e+00
  6.1062463e-02
 -1.4146385e-03
  2.3368747e+00
 -4.3236947e-01
 -4.0327451e-01
  8.7541027e-04
  5.2916598e-01
  7.2326708e-01
  1.4803642e+00
 -8.5678898e-02
 -6.0139161e-01
  3.3355847e-01
  1.5598026e-01
 -6.2334138e-01
 -2.0574758e+00
  7.8262424e-01
  6.4321852e-01
  1.4741264e-02
  1.6885275e-01
 -4.4505134e-02
  2.0667868e-02
  7.7362083e-02
 -1.8862946e-01
 -1.3223588e-02
  1.0591072e-02
  9.8030902e-02
  3.8731223e-01
 -1.1185522e+00
  4.1320518e-01
  5.2958601e-03
 -4.7402591e-02
 -1.6482034e+00
 -4.3906391e-01
 -4.2699209e-01
 -8.8253848e-02
 -3.0085711e+00
  1.3297257e+00
 -6.3456752e-04
  1.1938931e+00
 -2.2421396e+00
 -1.3716210e+00
  3.2753520e-02
 -2.0498869e-01
 -7.1855712e-01
 -1.9245755e-02
 -6.0341144e-01
 -1.3666810e+00
 -4.2749703e-01
 -3.2751802e-02
 -7.8785366e-01
  1.3761248e-02
  8.3703882e-01
  1.0554574e-02
  7.2681421e-01
  6.9042235e-03
 -7.7193193e-02
 -3.6292442e-03
 -8.7894201e-02
  5.3912252e-03
 -7.5406037e-02
  2.0590576e-03
 -1.7911828e-01
  3.7718007e-01
  9.1470677e-01
 -8.8711959e-01
  2.4475332e-01
 -9.2964033e-03
 -1.7366254e-01
 -4.5532110e-01
 -7.5041033e-02
 -8.6778373e-01
 -6.1794376e-01
  1.5573215e+00
 -9.7918161e-04
  1.8656684e-02
 -1.4223496e+00
  3.5445303e-01
 -1.5325953e-02
 -1.8773520e-02
 -1.1463596e+00
 -3.7126164e-03
 -1.5845635e-03
 -3.4785151e-01
 -2.1332777e+00
 -2.6475894e-01
 -9.2951977e-01
 -2.5864689e-02
  5.2670169e-01
 -1.4853622e-01
 -6.6845175e-03
 -2.0089129e-02
  5.5379875e-04
  1.7898856e-01
 -1.4120092e-02
 -5.9264278e-01
 -2.4568510e-01
 -7.7468425e-01
 -4.6525747e-03
  2.2685998e-04
 -3.8019903e-02
  8.5675812e-01
 -6.7052698e-01
  1.2900239e-01
  1.3728029e+00
  1.8030858e-02
  1.0104356e+00
  1.8015702e-01
 -5.2164888e-01
  2.5760202e+00
 -1.4914256e-01
 -2.2241811e-01
 -5.5354846e-01
 -7.1039516e-04
  2.3810412e-01
  1.6123199e-01
  1.2762381e-02
 -1.3664034e-01
  7.4065888e-01
 -9.5678970e-02
  5.0821531e-01
 -2.6232202e-03
  1.3392304e+00
  3.2935094e-03
 -1.0383822e+00
 -8.9323997e-01
 -9.1012782e-01
  1.8263170e-02
 -4.1991368e-01
 -2.0837405e+00
 -2.0288646e-01
  1.1353528e-01
  1.0129464e+00
  1.0219143e-02
  1.3998270e-02
 -3.2544602e-02
 -1.5322473e-02
  2.9948881e-01
 -9.6994571e-02
  1.2957617e+00
  5.2400134e-03
 -7.1645689e-01
  2.0339569e-01
  2.1263541e-01
 -4.8027161e-01
  5.1777387e-01
  1.3979840e-01
  3.0361530e-01
  2.8315002e-01
 -1.9839145e-01
 -8.3774525e-01
 -8.3628036e-03
  2.5019938e-01
  1.9774276e-01
  5.5304128e-01
 -5.8274355e-02
  2.9489240e-01
  5.5549324e-02
  2.3743986e-01
 -8.8002682e-01
  5.5474709e-03
  1.0467933e-02
  6.8543357e-01
 -2.7116892e-01
 -5.9200811e-01
  2.4814859e-03
 -1.0154249e-01
  2.0332127e-03
 -6.7612648e-02
  3.5090208e+00
  1.0665756e-01
 -1.9765955e+00
  4.8012236e-01
 -7.3627168e-01
 -9.1072224e-02
  6.6882402e-01
  1.3513283e+00
 -9.8554569e-01
  1.1226591e-01
 -3.8006094e-01
  2.2781568e-02
  1.5195641e-01
  1.2685322e+00
 -1.5842392e-01
 -7.5221644e-03
 -6.0673885e-02
 -1.8535185e+00
  4.3068442e-01
  5.8304018e-01
  8.3305961e-01
 -7.8040558e-01
 -1.2563391e+00
 -2.1481638e-01
 -1.1422659e-01
 -2.9276779e-01
 -1.2796511e-02
 -1.9122313e-01
 -7.3539495e-01
 -9.7971171e-01
 -4.4115141e-01
  1.0729870e-01
 -3.4227353e-01
 -2.2793807e-02
 -8.7028301e-01
 -3.7930887e-03
 -2.3249784e-02
 -7.1799204e-02
  4.4526097e-01
  4.9629334e-02
  8.8010204e-01
  2.9036728e-01
  1.5599442e-01
 -1.9593593e-02
 -1.3881744e-03
  8.6377215e-01
  2.1420697e-02
  2.0329744e-01
  1.9512281e+00
  2.1079371e+00
 -7.7925587e-01
 -1.0603029e-01
 -2.3534840e-03
  1.4822613e-02
  1.5319076e-03
  3.3326086e-01
  3.1037170e-01
 -2.3800281e-03
  5.0724930e-01
  5.5624640e-01
  1.4978722e-03
 -1.2538030e-02
  2.5459325e-03
  5.9523131e-03
 -1.7763266e-01
  6.4977240e-03
  6.9683121e-04
  1.5524608e+00
  1.5112762e+00
 -1.2341716e+00
  2.1258981e+00
  1.1698256e+00
  4.9987203e-01
 -1.2735496e+00
 -5.6479074e-02
 -1.4666560e+00
 -2.5347071e+00
 -6.9483751e-01
 -4.1915679e-01
  5.1938915e-01
  1.6714522e+00
  2.8216920e-04
  9.8928243e-01
  2.2648776e+00
 -1.5992524e-01
 -1.9898592e+00
 -1.9325958e+00
  2.0692930e-01
 -6.1675264e-03
  5.3964591e-01
  7.7169570e-03
  1.1928654e+00
  3.1337724e-03
  6.0082084e-01
 -9.7560281e-01
  6.6876996e-01
 -1.2284127e+00
 -1.7588654e-01
  9.4002980e-01
 -7.0387729e-02
 -2.4612673e-01
  2.1804798e-01
  2.1530659e+00
  1.0588839e+00
  7.0166892e-01
  7.4772644e-01
 -2.5287699e-03
 -6.6423738e-01
  2.9927657e+00
  1.0704505e+00
 -1.1343701e+00
  1.0271476e-03
 -1.0658847e+00
 -5.0947672e-01
  3.1079231e-02
  1.4187011e+00
  1.4621942e+00
 -5.4345244e-01
  3.8245898e-02
 -1.1399836e-01
 -1.1042593e+00
  2.1670558e-01
 -3.2974812e-01
  1.9422451e+00
 -1.2413758e-03
 -4.9243966e-04
  1.3560274e-02
  1.3343970e-01
 -1.5220147e-02
 -1.0316130e+00
 -4.7316802e-01
  3.7485294e-03
  4.1618444e-02
  2.6007250e-01
 -1.4173355e-03
 -7.4810058e-01
 -1.4402401e+00
  2.5397875e+00
  8.8228190e-01
  1.2324358e+00
 -6.3887060e-01
  1.1426692e+00
  7.3140955e-01
 -1.8588553e-01
  9.6456373e-01
  2.4041088e+00
  1.3151550e+00
 -1.3941495e-01
 -1.5816233e-01
  2.6960737e-01
  7.8702825e-01
  5.8994018e-03
 -2.8015658e-01
 -4.6051264e-01
  1.5371665e+00
 -2.2095548e-01
  6.9193547e-03
 -1.4717125e+00
  3.9056855e-01
 -4.9261857e-02
  3.4724206e-01
 -2.0919062e-01
 -1.4472455e+00
 -3.9445317e-01
 -1.1890277e-01
 -2.3874471e+00
 -5.0589287e-01
  3.9211518e-01
 -2.5647163e-01
 -6.4424974e-01
 -1.8091168e+00
  1.1112786e-01
 -5.6666476e-01
 -1.8410357e+00
 -6.7445207e-01
 -1.2163240e-01
 -2.2395933e-01
  2.0713508e-01
  1.9135799e+00
 -4.5357114e-01
  1.8988650e+00
  1.6496288e+00
  1.5081060e-03
 -1.3416468e+00
  9.9557823e-01
  3.9948130e+00
 -2.4663216e-02
 -2.8792057e+00
 -6.9679838e-01
  1.0230982e-01
 -7.3530489e-01
 -1.5810949e+00
 -8.6254382e-01
 -1.9136305e-01
 -5.7531732e-01
  2.1262938e-01
 -9.4363606e-04
  3.9598006e-01
 -7.5482363e-01
 -1.0744714e-03
  6.1344689e-01
 -4.7750103e-01
  3.2515111e+00
 -3.8409140e-03
 -8.9617983e-02
 -1.1033239e+00
 -1.0540205e+00
 -5.4217011e-01
 -5.4651397e-01
  9.2058128e-01
 -1.2349520e+00
 -1.1291990e-01
 -1.4253578e-01
  1.4169823e-01
 -2.4839130e-01
 -3.9464006e+00
 -1.7698353e-02
  1.1500805e-02
 -3.2892051e-01
  1.2992427e-01
  8.6349672e-01
  1.9627177e+00
  2.1448603e+00
  5.8475280e-01
  1.1267297e+00
  1.7654537e-01
  1.1335270e+00
 -4.4603013e-02
 -1.6119463e-02
 -3.0450678e-01
 -1.3353765e-01
  2.2373937e-02
  1.4178215e-02
 -1.5217037e+00
  2.6864964e-03
  4.8665792e-01
  2.9053637e-01
  1.8323000e-01
  2.2499982e-02
  9.6605235e-01
 -5.2492153e-02
 -1.1932470e-02
  4.3013805e-01
  3.6268303e-01
  9.4863381e-03
  1.5736040e-02
 -9.8663086e-01
 -5.3703070e-01
  2.0813317e+00
  5.1057118e-01
  7.8709079e-03
 -5.9823722e-01
 -1.0682045e+00
  2.5787681e-01
 -3.1840283e-01
 -1.2802367e+00
  1.3194394e-01
  2.2827199e+00
  1.4733125e-01
 -8.3277978e-02
  2.5242858e+00
 -7.6565510e-03
 -8.3142477e-01
 -3.8155135e-02
 -1.7394185e-02
  2.4389094e-01
 -1.6257932e-02
 -5.3475131e-03
  4.6656779e-03
 -2.0078593e-03
  4.9349338e-01
  5.3978759e-01
 -2.2523787e-02
  9.3091484e-03
 -3.9849916e-01
  3.6335230e-04
 -1.2560490e-03
 -4.0084920e-03
  6.9897480e-02
  1.8071104e-02
  7.0130066e-03
 -6.3749542e-04
  5.1171947e-03
 -7.9560662e-03
 -4.3185792e-04
  1.4190939e-01
  5.3389650e-02
  1.5620536e+00
 -4.0845111e-01
  4.4317734e-03
 -6.6311024e-03
 -7.5127307e-04
  5.8920523e-03
  2.8882057e-03
 -1.0741317e-03
 -1.2479593e-03
  5.5926093e-03
  1.7847987e-03
 -8.8791992e-04
 -1.9606434e-02
 -2.4351707e-02
 -2.2541055e-01
 -3.3204914e-03
  9.7755352e-03
  2.7970052e-01
 -5.5868566e-01
  2.8819968e-03
  6.2500760e-03
 -6.2723602e-03
 -9.8655159e-03
 -1.8945970e-03
 -7.5880862e-03
 -5.3229858e-03
 -3.7318381e-04
  2.6799629e-03
 -5.8590784e-03
 -1.9944590e-02
  1.6233003e-02
 -2.6997712e-02
  2.2241619e-01
 -8.5539382e-04
 -1.6193771e-03
 -1.6620854e-01
  6.8272591e-01
 -1.4473738e-01
 -1.4929834e-02
  2.4224031e-03
 -6.4898189e-03
 -1.9640205e-03
 -2.2045576e-03
  5.6515383e-03
  1.2925549e-02
 -1.4705579e-02
 -9.5925745e-05
  8.3755059e-03
 -5.7185846e-03
 -7.8725469e-01
 -1.2295177e-02
  2.8847265e-03
  1.6651973e+00
 -1.8499421e+00
 -1.0283883e+00
  3.7778184e-01
  8.3384931e-04
 -7.8143382e-01
 -1.3086736e-02
  7.7156848e-01
 -6.1210508e+00
  1.5547301e+00
  1.6375901e-01
 -1.5280861e-01
  1.4851758e-02
  3.2698943e-03
  1.0133718e-01
  8.0542423e-02
  3.0957259e-02
  5.8654803e-03
 -2.5762687e-03
  3.8547446e-03
 -2.1483070e-01
  1.3033956e-02
  1.2870546e-02
 -1.2199250e-02
 -1.6077626e-02
 -1.7582631e-02
  1.3590252e-03
 -5.8748848e-03
 -2.7789059e-01
  7.5069539e-02
 -9.2193736e-03
  2.5318004e-02
  2.7322510e-02
 -4.1099737e-04
  6.7124087e-03
 -1.9001621e-01
 -4.2446975e-02
 -3.1044599e-04
 -3.0099722e-02
 -4.5358598e-02
  7.3391348e-03
 -8.4676102e-02
 -1.8620485e-02
 -1.8554931e+00
 -9.6234120e-03
 -9.6652353e-01
 -5.1096887e-03
  8.9485124e-03
  8.3906138e-03
 -7.0322189e-03
 -1.3368526e-03
  1.9631980e-03
 -2.8645104e-01
  7.6264935e-04
 -2.2770038e-01
  8.2875704e-03
 -3.4352589e-01
  5.9806474e-04
  4.5691277e-03
  2.5802231e+00
 -3.4662182e-03
 -6.0808781e-04
  2.0809649e-02
  5.9663667e-04
 -8.2327435e-03
 -2.2535264e-03
 -5.5747125e-03
 -2.0160172e-03
 -3.0948644e+00
  7.8601497e-01
 -1.8235867e+00
  2.0927436e+00
 -2.0543084e+00
 -1.0602583e+00
  2.7069693e+00
  6.1589316e-02
  8.6391801e-01
 -2.2125271e-01
 -3.0196300e+00
  6.0191971e-01
 -1.0950232e+00
 -3.9422646e-01
 -1.4164836e+00
 -1.4803202e-01
 -5.9556717e-01
 -3.2280285e+00
  3.1403124e-02
 -1.0947546e+00
  4.7296502e-02
 -6.6119450e-04
 -7.9958665e-01
  3.3415418e+00
  1.2263511e+00
  6.1602074e-01
 -1.4477001e+00
 -2.6524168e-01
 -1.6624266e+00
  7.8176722e-02
  8.0787545e-01
  6.9835484e-01
  2.6730624e-01
  5.0697970e-01
  8.2679534e-01
  1.4164050e+00
 -1.5147219e+00
  1.0351243e+00
 -7.6006746e-01
 -6.1049998e-01
 -2.6872216e-03
  3.4198233e-01
  6.2646127e-01
  1.5196667e+00
 -1.3512710e+00
  8.6380810e-02
  2.4177040e-01
 -1.5342051e-01
 -7.3867697e-01
 -3.1818685e-01
  1.0300580e-01
 -3.4607014e-01
 -9.8619601e-03
  5.6676912e-01
  3.1483915e-01
  1.0179653e-02
 -1.9937267e+00
 -5.2275050e-01
 -1.4192307e-01
 -5.8604479e-01
  1.1466871e-01
  4.2339615e-03
  4.4350865e-01
  1.3787744e+00
 -2.5400095e-02
 -4.9385894e-03
 -3.3537301e-01
 -2.2756057e-03
 -4.2244020e-01
  1.8987536e+00
  2.3740351e+00
  4.1365105e-01
 -4.8505795e-01
 -5.4559094e-01
 -3.2176465e-02
 -5.0784498e-01
 -3.9748907e-02
 -1.0595399e+00
  1.7100295e-01
  8.9216900e-01
 -8.9753634e-01
 -1.7227774e+00
 -1.7907305e-01
 -1.5379606e-01
  1.0662014e-01
 -1.3009061e-02
  6.5083128e-01
 -3.3473036e-01
 -1.6852183e+00
 -1.4947989e-03
  1.0250733e+00
 -3.7374964e-01
 -4.1019899e-01
  1.2056708e-01
  4.0816265e-01
 -2.1755290e+00
 -2.7412930e-01
  1.2018636e-01
  3.1464309e-01
 -4.4658089e-01
  1.2420405e+00
  6.0550603e-03
  3.7343180e-01
  9.8639309e-02
  3.2822144e+00
 -3.4366667e-01
  9.0105259e-01
 -3.3082280e+00
  3.1132326e-01
 -4.1022861e-01
  2.7643657e-01
 -1.4261380e+00
 -1.0769811e+00
 -5.9966028e-01
  1.5344886e+00
  1.0655990e-01
 -2.9734120e-01
 -2.2168387e-01
 -6.7954975e-01
 -8.8172652e-02
  2.1168087e-01
  2.4695307e-01
  1.6355003e+00
 -2.7482253e-01
 -1.8171969e-01
 -5.3456065e-04
 -1.5358783e-03
  8.1751458e-02
  8.9759389e-03
 -4.2032178e-02
 -9.1673607e-01
  3.8761985e-01
 -1.0069396e-02
  6.2078637e-01
 -3.6600654e-03
 -9.3437530e-02
  1.8558496e+00
  1.2918202e+00
 -9.6044213e-01
 -4.4706984e+00
  8.7565446e-01
  2.0312181e+00
  1.9153496e-02
  1.7587471e+00
  4.1848725e-01
  1.9628280e-01
  2.3999551e-01
  2.4640148e+00
  6.2526506e-01
  4.3520090e-01
 -4.4183257e-01
  2.0682986e-03
  9.6084958e-01
 -3.5540804e-01
  1.5005611e+00
 -5.8823365e-01
  3.2203903e-03
 -1.7175026e-03
 -1.4785422e+00
 -1.7780885e+00
 -8.9979032e-04
  1.2040716e+00
  5.5725533e-01
 -6.6102155e-02
 -7.9431403e-01
 -4.5197022e-01
  9.1510880e-01
  3.2177892e-01
 -1.2847328e+00
 -2.3432520e-01
 -4.0696155e-02
 -2.9212090e-01
  2.1557794e-03
 -2.1920925e-01
 -1.6472229e-01
 -2.9939675e+00
 -1.2894919e+00
 -4.4658046e-02
 -5.0659947e-02
  7.6043993e-01
  1.5671868e-02
 -1.0145730e+00
 -1.5796678e+00
 -3.2259110e-01
 -2.8725544e-01
 -1.0675193e+00
 -2.4585736e+00
 -4.1490307e-01
  3.4576666e-01
  1.1563109e-01
 -8.3974165e-01
 -8.0041891e-01
 -1.2994078e+00
  1.2385124e+00
 -1.3751991e-03
 -4.7591247e-02
 -6.4034178e-03
 -1.8908585e-04
  8.8725054e-01
  4.5004231e-01
  1.3174393e+00
  1.8649843e-01
  1.0174569e-02
 -1.3499174e+00
  1.2263079e-02
  1.3626793e-01
  9.4271861e-03
  8.6539617e-04
  2.0881705e-03
 -2.3592351e-02
 -1.2014484e-02
  8.1874691e-02
 -1.3003696e+00
  2.8715606e-03
  1.7560747e-03
 -1.5764175e-02
  1.4081726e+00
 -3.7873868e-02
  5.0492864e-03
  1.9719137e-03
  1.6293949e-01
  5.5556721e-03
 -4.6164444e-01
 -2.1277096e-02
  9.0886736e-03
  3.7552728e-03
 -3.0656004e-01
  6.4400812e-03
  5.4320418e-03
  1.2150874e+00
  1.0922810e-02
 -7.7156280e-03
 -7.4453540e-02
  6.0476761e-02
  8.0522344e-02
 -8.4538049e-01
  3.1708959e-02
  2.0141197e-06
  4.3142653e+00
  1.8127834e-02
  3.3676329e-03
 -1.8986297e-01
  6.5994509e-03
  3.3332217e-01
 -1.3314073e-01
 -3.7826211e-03
 -5.0632167e-03
 -1.9247314e-03
 -1.3985467e-03
 -9.2886481e-03
 -2.5619922e-04
  4.7527338e-04
 -1.9252731e-02
 -3.2520343e-03
  5.0173295e-01
 -2.6647830e+00
 -2.5372340e-03
 -2.0657078e-04
  4.0449668e-03
  4.9275085e-01
  7.8471219e-03
  2.5341378e-03
  3.4553960e-03
 -2.5354241e-04
 -4.3066321e-03
 -6.1658182e+00
  2.3031315e-02
 -2.0595375e-03
 -1.9759799e-03
 -5.5978872e-02
 -2.9534096e-01
 -8.8610483e-04
 -3.7553936e-04
  1.3752461e-03
  3.3817040e-03
 -2.1167123e-03
 -7.2337204e-01
 -3.4981715e-03
  5.2881753e-04
 -4.0507122e-04
 -9.6504915e-01
 -1.1035511e-03
  2.3521222e-03
  3.8937465e-04
 -6.4623691e-03
  4.6589196e-01
  3.6603005e-03
 -5.2736499e-03
  1.6603267e-03
  3.2514794e-04
  1.7412999e-03
  2.5459358e-02
 -2.6676591e-02
  1.2236637e-03
 -8.3240261e-03
  5.7812226e-03
 -2.0217199e-03
  5.4915911e-03
 -5.3510042e-03
  1.9273294e-02
  5.8211032e-03
  8.5457570e-05
 -6.2617086e-02
  2.2161575e-03
  1.6160680e-01
  3.0522305e-03
 -1.2849213e+00
  2.7200785e-03
 -9.6284086e-04
  1.6323768e-02
  3.7107255e-02
 -5.1204587e-04
  1.0945567e-01
  1.6076401e-02
 -8.0572972e-03
  1.1043696e+00
  1.5961571e-03
 -5.1359706e+00
 -1.6611372e+00
  1.1689567e-02
 -8.9245179e-04
 -5.3027547e-03
 -1.5146646e-02
 -1.7435536e-01
 -5.0499272e-03
  4.3440061e-03
 -4.7112812e-04
  4.5682412e-01
  1.3668741e-02
 -4.1247919e-04
  5.8957897e-03
 -2.6639013e-03
 -5.4861733e-04
  5.7212659e-03
 -2.3148559e-01
  4.0682843e-03
  3.2651663e-02
 -6.5217512e-03
  2.6324375e-03
  2.4742344e-02
 -9.6203303e-03
  1.3880848e+00
  1.0069909e+00
  1.0562851e-01
  5.4859620e-04
  1.4950868e-02
 -8.0146158e-01
  2.2350118e+00
  1.1719131e-01
 -3.2376528e-02
  1.0044775e+00
 -1.3482563e+00
 -8.5594110e-02
  4.0094990e-01
  5.5866994e-02
 -2.4996501e-01
 -2.2459875e-01
 -7.4312186e-01
  7.7894938e-01
  9.5842218e-01
 -3.2925552e-01
 -6.1208736e-03
 -2.2786541e-02
  2.2914295e+00
 -7.8184959e-03
 -1.8198540e-02
 -3.7374941e-01
  7.5025357e-02
  1.5697710e-01
  4.0493812e-04
  2.1275222e-01
 -6.6827440e-01
 -3.9408434e-02
 -6.9926804e-01
  5.6235713e-01
 -6.3638687e-03
 -1.6782518e-02
 -3.7923642e-03
  8.9996466e-03
  8.4431678e-01
 -2.2826962e-01
  3.2832339e-01
  2.1414240e-01
  1.0944349e-03
 -7.1845733e-02
  4.7684482e-01
  2.8861558e-02
 -6.0214316e-03
  4.8908678e-01
  2.0578724e-01
  1.3453159e-03
  9.3288463e-01
  1.1242777e-01
  7.8832796e-03
 -2.5146360e+00
 -1.6195493e-04
 -8.2973546e-01
 -1.7715339e-02
  3.6194220e-01
 -3.1254783e-02
 -1.9669409e-03
 -3.7349842e-03
 -3.3991414e-03
 -3.9604846e-02
 -1.0006632e+00
 -4.4177402e-02
 -6.6801091e-03
 -2.1541059e+00
 -9.7526902e-01
  3.0855381e+00
  3.8181427e-01
  1.2123314e-01
  6.3922769e-01
  2.3138127e-01
  1.6960220e-01
 -6.4751387e-01
 -8.1187789e-04
  2.8591149e-04
 -8.2084161e-01
  7.5066745e-02
 -4.1968562e-03
 -8.1566423e-01
  1.2830219e+00
 -3.6858606e-01
 -4.5309775e-03
  9.2028046e-01
 -3.7260689e-02
  1.1400806e-02
  7.3611826e-01
 -3.8923997e-01
  1.9048965e-01
 -2.3727552e-03
  5.1428054e-02
  8.4951031e-01
  7.2319962e-02
  7.1141982e-01
 -2.2814867e+00
 -3.4021795e-02
  1.8424490e-01
 -2.0432706e+00
  2.0240016e+00
 -1.6518753e+00
 -1.8845586e-01
  6.3310719e-01
  6.4264017e-01
 -1.0841099e-03
  2.6207397e+00
  1.8594266e-01
  3.6653185e-01
  1.6494567e-02
 -1.3383132e-01
  1.3919087e-01
 -1.2884681e+00
 -7.4464929e-01
  4.0400699e-03
 -1.6384202e-01
 -3.2504040e-01
  1.5305440e+00
  8.0061227e-01
  1.1361288e-01
 -4.7302984e-02
 -1.3208698e-01
  1.6899589e-01
  2.4160430e-01
  2.9842752e-01
 -1.5588036e-03
 -2.0802686e-02
 -1.3553560e-03
 -2.6352745e-01
  2.4338590e-01
 -9.6402718e-03
 -3.8378771e-02
 -3.4428278e-01
 -6.8827130e-02
  1.1928707e-01
 -6.9439441e-02
 -2.4760707e-04
 -6.5399081e-01
 -2.2493159e-02
 -7.5866616e-01
  9.4629237e-03
 -1.5841057e+00
  3.1288713e-01
  6.3016433e-01
  6.4454812e-01
 -4.4468325e-01
  4.2802107e-01
 -2.0079102e-02
  2.0507069e-01
 -1.9142684e-02
 -1.4902495e-02
  1.6072321e+00
 -2.5478059e-01
  4.3412380e-02
  4.2138519e-04
 -3.6984875e+00
 -2.5981743e-02
 -1.6152741e-01
 -1.8926653e-01
 -1.5234351e+00
  3.8896576e-01
  8.2855117e-01
 -4.5164627e-01
 -1.1332490e-02
  2.7243063e-01
  2.4563393e-03
  2.1509784e-03
 -1.7948849e-01
 -2.0629624e-01
  8.9699411e-01
  1.0250430e-01
 -1.2642312e-03
  7.5845897e-01
 -8.4335274e-01
  4.2601898e-01
  3.5285962e-01
 -1.9157661e+00
  1.1536139e+00
 -2.7848202e-01
  2.1975432e-02
  3.1407134e-04
 -2.9245597e-01
 -1.2619837e-01
  8.0016130e-01
  7.9383895e-02
 -2.7803123e-01
 -6.9075435e-01
  1.8464599e+00
 -1.5678737e+00
 -8.7338425e-02
  4.6046413e-02
  2.3246370e-02
  5.1130340e-02
 -5.7640951e-03
  1.0363594e-02
  2.6822747e-03
 -2.1103581e-03
  6.3422313e-03
  4.0510494e-02
  1.1610144e+00
  1.1319499e-02
  2.3170742e-01
  9.2665732e-01
 -2.6117924e-01
  5.4627889e-01
  1.4351306e+00
 -6.3479316e-01
 -2.7974505e+00
  4.5519060e-01
 -1.4169582e+00
  1.3556397e+00
  1.6858789e-01
  1.8400262e-01
 -6.1251014e-01
 -1.4305784e+00
  2.3131669e+00
  7.9317248e-01
 -1.8112155e+00
 -1.9534876e+00
  1.6060699e+00
  1.6764436e+00
  1.2586571e+00
 -6.8673229e-01
 -1.9021074e-01
 -7.8122252e-01
  8.7810922e-01
  7.4221021e-01
  8.0431265e-01
 -7.6155430e-01
 -1.3024849e+00
 -4.7490290e-01
 -4.2796811e-01
 -1.2376035e-02
 -6.9758826e-01
  3.0482996e-01
  1.3938973e+00
  2.6406914e-01
  5.5839348e-01
 -4.3460983e-01
  4.1873559e-01
  7.0820498e-01
 -9.1945864e-02
  8.3596104e-01
 -1.2233156e+00
 -6.8521816e-01
  2.8004602e-01
 -1.3860700e+00
 -2.9954069e+00
 -2.3477823e-01
 -1.2056659e+00
 -6.3497764e-01
 -1.2085563e-02
 -2.5633246e-01
 -6.0376096e-01
  7.6866603e-01
 -5.9976343e-02
 -2.0995985e-01
 -8.2323760e-01
  3.6959878e-01
 -3.8324547e-01
 -6.6100448e-02
 -1.1063679e+00
 -1.3753685e-02
 -9.7753555e-01
  9.0403704e-04
 -2.8980175e-02
  2.1226367e-01
  2.3333302e-03
  2.6701284e-03
 -6.6419697e-01
 -2.1432973e-03
 -3.9080968e-01
  6.9707912e-01
 -5.5034524e-01
 -4.0571654e-01
  1.2609086e+00
  1.1900369e-02
  2.6003847e-01
  1.4964750e-01
 -1.4101012e-01
 -5.5918795e-01
 -5.7916868e-01
 -1.0344422e+00
  8.5354358e-01
  7.5968817e-02
  6.8224184e-03
 -1.6422731e-01
  2.3077977e-01
 -8.1780016e-02
  7.9488178e-04
 -1.3101562e+00
 -1.0643790e-02
  9.3750721e-01
 -8.8692081e-01
 -1.3273753e+00
 -5.1170666e-02
 -3.5869512e-01
  1.0176043e-01
 -1.0353781e+00
 -5.7940292e-03
  1.0083322e-02
  1.8749849e+00
 -1.6982989e-01
 -6.2917012e-01
 -2.7117601e-01
 -8.7695354e-01
  4.9978107e-02
  2.0210455e-01
  1.7054555e+00
  4.9083553e-02
  5.2896762e-01
  2.7429927e-02
 -6.2374943e-01
  1.4146755e+00
  6.6040403e-01
 -2.2202204e-01
 -1.9174924e-02
  9.5753187e-01
  9.0787187e-02
  1.1597948e-01
 -1.3724813e+00
  9.0267278e-02
 -9.2301771e-02
  7.8697067e-01
  1.8969066e-02
 -3.9031208e-03
  6.1983132e-01
  3.4999287e-01
 -1.7708865e+00
  5.6049116e-03
  8.4975846e-02
 -3.4563732e-01
 -4.6613146e-02
  1.4223760e-01
 -1.4300479e-01
 -1.4873919e+00
 -2.3000653e-01
  2.4318163e-01
  1.3051271e-01
  1.5540983e-03
  5.7476815e-02
  3.4194245e+00
 -1.1839354e+00
  1.1605700e+00
  1.4827207e+00
  5.2444732e-01
 -1.0757061e+00
  7.3960265e-03
 -9.8160028e-02
  4.7118008e-01
  5.5857241e-01
 -2.8041818e+00
 -6.8344861e-01
 -1.4252806e+00
 -4.1302419e+00
 -7.3264408e-01
  3.3762676e-03
  1.7794482e-01
  5.2848193e-03
 -1.2962028e+00
 -1.6976431e-02
 -5.6559779e-03
 -9.1387972e-02
 -1.6127457e-01
 -1.3600835e-01
 -1.5023911e-01
  2.6143718e-01
 -1.5527286e-02
  6.8064150e-03
  4.1645312e-01
  6.3897604e-01
 -1.3608660e+00
 -2.9417144e-02
 -6.5750390e-02
 -5.9791452e-01
 -3.7077852e-02
  7.2312257e-03
  9.5960146e-01
 -8.0650672e-03
 -1.4251772e+00
 -7.0751086e-03
 -2.6556881e-02
 -9.9557778e-04
  6.4220852e-01
  6.1785614e-01
  2.3580539e+00
 -1.8970819e+00
 -5.9621599e-02
  1.3376320e-02
  2.4051109e-01
  1.5217556e-01
  1.2193799e+00
  2.5089524e+00
 -7.1426749e-01
  2.4105465e+00
 -5.1745631e-02
  1.1327288e+00
  6.5709213e-03
 -1.6105850e-01
  1.6147140e-03
  7.0571476e-03
  1.4691518e-02
  1.2306685e-02
 -3.1542932e-03
 -4.3909522e-03
  9.6891099e-04
 -8.4701157e-04
 -2.0310581e-03
 -1.1113895e-01
 -5.6974369e-01
  2.5724578e-01
 -1.6790335e-01
  1.0773164e+00
  2.9903622e+00
 -1.5216270e-01
 -7.9156524e-01
 -3.1779793e-01
  8.4841941e-03
 -2.9009143e-01
  1.9861052e+00
 -2.0114708e+00
 -1.1909488e+00
 -1.6454227e-03
  3.0687654e-01
 -4.7852444e-03
  4.3662950e-02
  2.3724276e-01
 -1.2985227e-02
  4.2433050e-01
  7.4989837e-01
  1.3756342e+00
 -2.0649211e-02
 -1.4604315e+00
 -8.9918621e-02
 -1.5381384e+00
  1.3158284e-02
  2.8118675e-03
  1.3118424e-02
  2.7241765e-03
 -7.9811914e-03
  1.2014045e+00
 -4.6477953e-01
  3.4162489e-01
 -1.0719841e-02
  3.3680706e-03
  1.2341932e-02
 -1.4566167e-01
 -1.9070264e-02
  8.6790293e-02
  8.4789515e-01
  4.7472458e-02
  6.6283755e-03
  1.5467704e-02
 -2.3077178e-01
 -7.6121551e-01
  6.6557168e-03
 -1.5661927e-02
 -8.3226496e-03
 -9.7053535e-03
  3.3858129e-01
  3.2937008e-01
 -9.5422542e-01
  2.3270414e-04
  1.4743413e-01
  8.0348775e-03
  1.5930213e-01
  4.0911961e-01
  7.6928049e-01
 -1.4101447e+00
  2.5036026e-02
 -1.5957754e-02
  8.8828719e-01
 -1.9689508e-02
 -8.4781751e-02
 -1.4538292e-02
 -3.3371563e-03
  2.3926165e-02
 -1.9681555e+00
 -6.3906455e-01
 -1.8857891e-02
  1.6346274e-01
 -7.6741553e-03
  3.0395954e+00
 -2.6168680e+00
 -3.9268944e-01
  2.6893061e-02
  3.1679609e+00
  1.5477499e-01
  1.4993189e-01
 -1.4069008e-02
  6.5334760e-02
 -3.2753113e-01
 -1.3598335e-02
 -1.7791539e-01
  3.5178881e-02
  4.9935680e-02
 -4.2264382e-03
 -9.5564099e-03
  1.0519922e-02
 -6.8480661e-04
  2.7696977e-03
  6.8595768e-03
 -1.5946376e+00
  1.5396241e-03
  4.7294720e-04
 -5.8800232e-01
  6.3151658e-01
 -2.2437796e-02
  2.2471080e-02
 -3.0636344e-02
 -1.0560369e-02
  3.9107437e+00
  2.4354065e-02
 -1.2721202e-02
 -1.7489843e-01
 -2.3555045e+00
  9.8671265e-02
 -7.5043488e-01
 -1.7626296e-01
  2.2540770e+00
  1.2867211e-03
 -6.6199929e-01
  2.1017183e-01
  4.4994219e-03
 -1.3982866e+00
  4.8413847e-02
 -1.9842371e-02
 -2.0457571e+00
 -4.4738202e+00
  3.8121943e-03
  5.0192279e-01
  1.3366373e-01
 -1.2322742e-01
  6.1781914e-04
 -4.4677388e-03
  8.3604306e-02
  6.1646299e-03
  9.3878740e-03
 -6.8227565e-03
 -5.4889765e-02
 -9.8347559e-04
  7.3681939e-03
  1.0800730e-03
  2.6798269e-02
 -5.9415805e-01
  1.8244860e-01
  2.6692873e-01
 -3.6631492e-01
 -7.4104881e-01
 -6.0626544e-02
  9.9821156e-03
 -2.3184981e+00
  2.0362641e-01
 -2.9218614e-03
 -6.7895902e-03
  9.5053934e-02
  2.7028483e-01
  5.7884445e+00
 -1.4289325e-03
  1.0205971e+00
 -1.6802351e-03
 -8.1312712e-03
  3.8240528e-01
 -1.2525017e+00
 -1.2877831e-03
  1.1990985e-02
 -6.7563191e-02
 -2.4725974e-01
 -1.0303399e-03
  2.2225745e-02
 -2.8694745e-02
 -1.3606283e-01
 -4.9196087e-02
  1.0313197e-03
  9.9371415e-01
 -5.8652550e-01
 -1.3056282e-02
  5.3999860e-02
 -6.6992223e-01
 -1.7117664e-03
 -1.8497333e-02
 -1.9329087e-01
  5.8362007e-02
 -3.8016295e-01
 -6.6772860e-01
 -1.5183802e+00
 -1.3581004e-02
  2.1795042e-02
 -7.4673463e-03
 -2.0331895e+00
  1.8506547e-02
  1.0351733e-02
 -3.0416936e-01
 -9.3547191e-04
 -5.0339401e-01
 -4.2624366e-01
 -1.0569382e+00
 -3.4484345e-01
 -6.4059623e-02
  3.7534806e-05
 -8.9497441e-01
  4.4212649e-03
 -1.5842221e+00
 -2.3249218e-03
  4.2844731e-03
  5.6795740e+00
 -7.0276499e-02
  2.3640715e-01
 -1.0417916e-02
  3.0934913e-04
 -1.4155076e-04
 -2.7510168e-03
 -6.7296386e-01
  3.7842745e-01
  2.2979139e-01
 -2.3638122e+00
  1.3302596e+00
  3.5391903e+00
  5.8061141e-01
 -5.4632264e-01
  1.2259888e-01
  5.1201630e-01
 -1.0008918e+00
 -1.0348753e+00
 -1.7475471e+00
  2.1558923e-01
 -7.8688031e-03
  9.8640794e-01
 -2.6927174e-03
 -6.4956315e-02
 -3.1513467e-02
  6.6054279e-01
  6.8451159e-02
  1.1096652e+00
  1.1417431e+00
  5.5394083e-02
 -8.8392371e-01
  2.9010525e+00
 -3.1590801e-01
 -2.4358628e+00
 -2.3661231e-01
 -9.3662133e-03
 -4.0889716e+00
 -3.4131246e+00
 -5.2016556e-01
 -1.8736228e+00
 -1.1116152e+00
 -1.9576187e-01
 -6.5657550e-01
  7.1683604e-01
 -1.0568707e+00
  7.3250905e-02
 -1.8237922e-02
  1.1875739e+00
 -2.5882196e-01
  3.9905915e-01
  2.9032853e-01
  1.8268245e+00
 -5.7482708e-01
 -5.3146553e-01
 -1.5285299e+00
 -1.5385479e-01
  8.2119890e-03
  1.8668514e-03
 -1.3880448e-01
  6.8558687e-01
  3.2304958e-01
  1.7437688e-01
  3.4488496e-01
  3.4079418e-01
 -5.1926863e-01
 -3.5369087e-02
  1.1553461e-01
 -7.3396587e-03
  5.8496576e-02
 -2.3147740e+00
 -3.7639966e-04
  1.2414693e+00
 -4.7084438e-03
  1.7622014e+00
  2.9176122e-01
 -3.3435445e-02
 -8.8281363e-01
 -1.7733191e+00
  1.8794067e-02
  1.1267422e-01
 -9.0372193e-01
 -2.1064773e+00
  6.9218051e-01
  7.0327055e-03
  1.0992675e-01
  3.8857746e-01
  5.2629981e-02
 -3.2396033e-01
 -3.1550971e-03
  4.0532285e-01
  1.0699230e-01
  3.7322447e-01
  9.4899195e-01
 -1.6598900e-01
  3.4866884e-01
  1.4946766e-01
 -1.1182339e-01
 -7.5331855e-01
  2.0783360e-01
 -8.0852401e-01
 -7.0844632e-01
  3.9376754e-01
  3.3194381e-01
  5.0237870e-01
 -1.4289817e-02
 -2.5165921e-01
  2.9189521e-01
 -4.6150559e-01
 -2.6301846e-01
  1.1753961e-02
  1.4466889e-01
 -2.0589731e+00
 -1.4214534e-01
 -1.1626306e-02
 -1.8490634e+00
  3.8884181e-01
  4.3708137e-01
 -1.1712324e-03
  1.4962992e-03
  1.7067852e+00
  7.6444495e-01
 -1.2868875e+00
  3.1998873e+00
 -5.1070865e-02
  2.7981707e-01
  8.9226902e-04
 -8.1228010e-02
 -5.8772171e-01
  2.3315136e-01
  1.9693052e-02
 -8.7266141e-01
 -3.3542144e-01
 -7.9403394e-01
  1.3208660e-01
 -9.4730122e-04
  1.2427771e-04
  7.0697409e-01
  1.1169548e-01
  1.1699038e-03
  8.6398207e-02
 -1.3870072e+00
  3.5749279e-02
 -3.3823457e-02
  3.0913752e-02
 -1.9439727e-03
  6.5639246e-01
  1.1203159e-03
 -8.9967456e-03
 -1.6465326e-01
 -3.4622196e-03
 -3.3284687e-03
 -4.3178603e-04
  3.5310301e-04
  8.4773314e-01
 -1.5376335e-02
 -5.0650799e-04
  7.7610584e-03
  1.8520538e-02
  1.5050841e-03
 -5.1238745e-02
  1.9967230e-01
 -7.4489675e-03
 -1.3113319e-02
 -2.1713191e-04
 -1.1011652e-03
  8.7543111e-03
  4.5630988e-03
 -2.3877753e-02
 -5.3975414e-03
 -2.4050553e-03
 -6.7780586e-03
  6.2430990e-03
  8.1410084e-04
 -1.2756488e-02
 -1.1909932e-02
  4.7929557e-03
  7.6549683e+00
  1.5813939e-05
  6.4410185e-03
 -2.8113015e-03
  9.5049234e-04
  2.5500276e-04
  1.4154157e-02
 -6.3394331e-03
 -4.0512982e-01
 -3.1200435e+00
 -7.7357953e-03
 -1.1961094e+00
 -4.0323497e-03
 -9.4524113e-04
 -7.5177164e-03
  4.6478271e+00
 -6.3432707e-03
  1.2714052e-02
 -7.1133440e-03
 -1.3164693e-02
 -1.6773741e-03
  7.6710219e-03
  5.1857773e-03
  8.9308750e-03
 -4.9605290e-03
  1.5438288e-02
  9.5552933e-01
 -3.1146100e-02
 -2.5659942e-04
  5.3165029e-03
  2.5115062e-02
  5.6940218e-05
  6.4797988e-03
  8.3748746e-01
 -1.5396698e+00
  1.0621985e+00
 -2.0231485e-01
  1.7381361e+00
  5.3651440e-03
  5.3291053e-01
 -6.5051502e-01
  4.0461278e-01
  5.8137704e-02
 -7.1015084e-01
  6.8907785e-01
 -6.6029608e-02
 -8.0784887e-02
 -4.0450183e-01
 -2.6697966e-01
  7.9572499e-01
 -7.0441640e-03
  3.1363454e-02
  4.5395091e-01
 -1.2675223e-01
  9.3061364e-01
  1.5529528e-01
  1.7434917e-02
  4.5592710e-03
 -6.7181434e-03
  1.0462208e+00
  1.4432200e+00
  2.1591929e-01
  1.5811225e-02
 -8.4274846e-01
 -2.1687982e+00
 -3.2854667e-01
 -3.1153065e-01
 -1.8681246e+00
 -1.0028074e-02
 -1.0333992e+00
  2.7396783e-02
 -2.5247635e-02
 -2.6022274e+00
 -2.0723012e-01
  2.0750046e-02
 -6.6906959e-01
  4.8635477e-01
 -4.3287936e-01
  4.0396121e-01
 -1.2852961e-01
 -7.2837818e-01
 -5.8807037e-03
 -5.6508876e-02
  1.5810482e-01
 -1.1729707e+00
 -7.3474431e-01
  3.4156416e-02
 -9.5385355e-01
 -2.6983130e-01
 -2.3148682e-03
  4.8055387e-01
 -8.2864542e-04
  1.8815682e-03
  2.4404335e-03
  1.0489224e-02
 -4.8449039e-04
 -5.5724466e-01
  5.1497775e-03
 -7.8140963e-03
  1.3826641e-01
  1.1013618e-02
  1.3439844e-03
 -1.4460427e-01
  1.7696565e+00
 -2.1142354e-02
  2.0874307e+00
  1.8584099e+00
  1.2909625e+00
 -9.6980780e-02
 -2.8650418e-01
 -5.7856911e-01
  3.6133008e+00
  7.8992522e-01
  2.4903305e-01
  1.2492087e+00
 -1.3391703e+00
 -6.5469080e-01
 -7.8571424e-02
 -2.7144873e-01
  1.2361113e+00
 -2.7379063e-01
 -7.4959463e-01
 -5.6422150e-01
  3.6644644e-01
  3.6234701e-01
  3.7198502e-04
 -4.1666675e-01
 -1.5428224e-01
 -9.6538717e-01
  1.2618169e-01
 -3.3603538e-02
 -1.2720408e-01
 -2.9499041e-02
 -8.0595589e-01
  7.2865868e-01
 -1.0958276e+00
 -2.4935535e-01
 -2.5260947e+00
 -8.6305644e-03
  2.2768199e-01
  2.0921874e-01
 -1.3992181e+00
 -2.7096412e+00
  1.1789098e+00
 -9.6574360e-01
 -1.2108066e-01
  1.0536932e-02
  5.5200648e-01
  1.3124341e-01
  1.3278172e-02
  3.7048608e-01
 -2.5135994e+00
 -2.0687046e+00
 -5.7181162e-01
  8.0190319e-01
  6.8825948e-01
 -1.7903812e+00
 -3.1503179e+00
  3.2294515e-01
 -1.1807311e-01
 -1.6673595e-01
  1.3792275e-01
  7.1704462e-02
 -1.5132125e-01
 -7.3204516e-04
 -5.0275397e-01
 -1.1981602e-01
  1.0016975e-02
  8.0533250e-04
  2.5896779e-01
  3.3159477e-01
 -4.2493415e-01
 -3.0659473e-01
 -3.9127046e-01
  2.8007624e+00
  7.8286612e-01
  2.2125521e+00
  1.1105573e+00
  2.0961067e-01
 -4.0796666e+00
 -1.8388219e+00
 -5.0528395e-01
 -4.8279408e-02
  1.2147133e-01
  1.9893976e-01
 -3.9649257e-01
  2.8068979e+00
  5.6196296e-01
 -8.9386642e-01
  4.8185048e-01
 -1.0120994e+00
  6.8503439e-01
  1.0455495e+00
  2.2889185e+00
  6.3380598e-05
 -6.5738603e-02
 -4.2708796e-01
  2.2391612e-02
  1.0743662e+00
 -1.0018297e+00
 -2.0728657e+00
  1.1647941e-01
  5.4089412e-02
 -3.1190801e-01
  2.9921274e+00
 -2.4944689e+00
  3.3632860e-02
 -2.1481237e-01
  8.6372823e-01
 -5.8380952e+00
  2.5501652e-02
  1.3774768e-01
 -1.0285512e+00
  3.6328595e-02
 -1.2776126e-01
 -5.4093976e+00
  6.2742382e-01
 -1.2921772e-02
  1.3225249e+00
  1.1760182e+00
 -2.2581117e-01
 -1.0092504e+00
 -1.0865862e+00
  1.2969123e+00
 -2.1685199e-01
  2.2094839e+00
  7.4293262e-01
 -5.3531134e-01
  6.1673829e-03
  2.8301314e-02
 -1.2754515e-01
  6.8426490e-02
 -5.2094376e-03
 -1.1519634e+00
  4.9742490e-01
  6.3121974e-02
  4.6256140e-02
 -6.5200157e-03
 -4.8969507e-01
  2.9347372e-01
 -4.1092885e-01
 -1.5598764e+00
 -1.7763314e+00
  4.2923422e+00
  6.2386155e-02
  7.6997668e-01
 -4.3526769e-01
 -1.6497288e+00
  3.1901484e+00
  1.0638559e+00
  8.3225983e-01
 -4.3534756e-01
  6.4916408e-01
  2.8949541e-01
 -3.2286128e-01
 -3.2700893e-01
  8.7753832e-03
  2.1326227e+00
 -5.9712207e-01
  8.7859893e-01
 -1.3071153e+00
 -7.1271801e-01
 -1.7417908e-01
 -5.7462626e-03
 -3.7416751e-03
  7.9739407e-02
 -7.8897029e-01
  7.3562098e-01
 -2.7798765e+00
 -4.0542907e-01
  1.8149571e+00
  3.5332695e-01
 -3.4121975e-01
 -7.5069803e-01
 -2.4503949e-01
  2.9737654e-01
 -1.7024369e+00
 -1.1637914e+00
 -2.9010573e-01
 -1.6372873e+00
 -4.1307464e-02
  1.6700814e+00
  8.6029947e-01
  6.6812336e-04
  1.0007778e+00
 -7.0603698e-01
  5.9626615e-01
 -3.2566732e-01
 -8.0675942e-01
 -4.2363265e-01
 -1.1651962e+00
  7.2102284e-01
  6.7665446e-01
 -5.4608244e-01
 -8.7937492e-01
 -5.9551579e-01
  2.7237746e-01
 -2.2659591e-01
 -9.5372275e-03
 -4.6915439e-01
 -3.8774632e-02
 -2.2746523e-01
 -2.4499145e-01
 -7.4244553e-01
 -4.9400702e-02
  2.2226711e-01
 -7.0656180e-01
  1.3170595e+00
 -2.4265081e-03
 -1.9128807e+00
  1.0385618e+00
  2.1566048e+00
  6.9280696e-01
 -3.3330545e-02
 -5.7518625e-01
 -4.3646100e-01
 -1.7026143e+00
 -8.8475066e-01
 -2.1308088e+00
 -7.5717002e-01
 -1.9004685e-01
  3.0685071e-02
  9.5144846e-03
 -2.4861777e-03
 -1.2891132e+00
 -9.4803733e-01
 -4.9322017e-02
  4.8661465e-03
 -9.5310271e-02
 -2.3570827e-03
  3.4956466e-02
 -1.2059949e-01
  1.9032252e+00
 -7.0927963e-02
 -2.6724853e-03
 -2.6751289e-01
  8.0614299e-02
 -4.2822976e-02
  2.3294856e-01
 -2.1295825e-03
  1.6676820e-03
 -3.3115070e-02
 -1.2353092e-02
 -8.3337933e-02
 -1.0757541e-01
  6.7182437e-02
  1.2315753e-03
 -2.7422603e-02
 -1.0277307e+00
  5.5690980e+00
  9.2930585e-04
  1.5497863e-01
  1.1211565e+00
 -1.3445984e-01
 -1.4865875e+00
 -3.2396047e+00
  3.2236296e-01
 -1.2213089e-01
 -2.1397481e-02
 -2.6186878e-02
 -5.0269533e-03
  7.3698252e-01
  5.6006186e-02
 -2.8058689e-03
 -6.5306718e-03
  8.1001967e-03
 -2.2143438e-03
  2.4004852e-04
  1.0632378e-02
  2.2702084e-01
 -2.3794030e-01
 -1.1264238e-03
 -2.5194917e-02
 -9.5450886e-02
  6.4898622e-03
 -2.2361605e-01
  2.1674384e-03
  2.1385250e-03
  3.7198388e-03
  1.0291359e+00
 -8.7324539e-03
 -2.7574790e-03
 -4.7456943e-03
  6.1534564e-03
  4.1332293e-02
 -2.0076411e+00
  1.1714375e-02
  5.8871047e-03
  1.5981810e+00
  2.2002121e-02
 -5.2235508e-05
 -9.4273826e-03
  1.2987232e-03
  6.3688233e-02
 -8.3085420e-03
  2.4062609e-03
  8.1908554e-03
  1.4059670e-02
 -1.0473696e-03
  3.5488575e-03
  1.9795897e+00
  4.7320037e-04
 -1.6249886e-03
  1.3801180e-02
 -3.6564581e-02
 -2.0439787e-02
  7.3356549e-03
  5.6232712e-03
 -4.4226352e-04
 -6.3159824e-03
 -6.5323603e-03
  7.8033679e-03
 -2.4994838e-03
 -1.1440477e-03
 -1.4604926e-03
 -3.3654220e-04
 -7.9173530e-03
  5.1612698e-04
 -4.6309652e-03
 -6.1750220e-04
 -6.1519905e-03
  6.3972650e-05
 -4.5752813e-04
  1.2036387e-03
 -3.1728558e-03
 -2.3673556e-03
 -5.1390797e-02
  1.1902141e-03
 -4.4545969e-03
  3.5676244e-04
 -1.2335623e-02
 -6.8533409e-04
  5.6448169e-03
 -3.8444090e+00
  2.2796454e+00
  1.4111788e+00
  2.2956564e-03
 -5.0835079e-03
  1.4073814e-02
 -3.5221067e-03
 -2.0859814e-01
 -1.2054453e-02
  3.5564452e-01
  2.2064788e+00
 -2.6117800e-02
  2.3419002e-02
 -9.5876843e-01
  1.2429304e-01
 -9.4456412e-02
  2.2739479e-01
  2.3429723e+00
  3.0563710e+00
  2.4190443e+00
  1.4882258e+00
 -1.8401815e+00
  3.1104144e-01
  1.1153142e+00
 -3.1441334e-01
  3.0493842e-02
  9.2186835e-03
 -1.3185956e+00
  2.6698044e-01
 -6.7458935e-02
 -1.2100894e-01
 -7.1665682e-02
 -1.5300643e-02
  1.3269752e+00
  5.0874166e-02
 -4.1265031e-03
  1.0915238e+00
 -2.3121104e-01
 -5.7096308e-01
 -1.3886863e+00
  5.7017845e-03
 -9.7386515e-01
  1.4048161e-01
  4.3965563e-01
  1.1119281e+00
  8.0017620e-01
  9.6539527e-02
 -1.7882314e+00
 -2.5904805e-03
 -6.2068588e-01
 -5.7506341e-01
 -2.6531361e-02
 -1.5206429e-02
  6.9238102e-01
  5.8713436e-02
 -1.5540847e-01
  1.5196972e+00
  9.0581421e-03
  1.1489609e+00
 -3.8359112e-01
  1.1191485e+00
  4.8062336e-01
  7.6000881e-01
 -1.5673455e+00
  6.9945298e-02
 -1.2499451e-01
 -2.8447947e-02
 -3.2975420e-04
 -5.5202818e-03
 -4.8369947e-03
  8.7160647e-02
 -3.8914052e-01
 -1.1539688e-01
  3.8706681e-01
  1.3609283e+00
 -2.2735804e-02
  3.0790079e-01
  5.8809090e-03
 -6.9543361e-03
  3.9237158e-04
  4.4900510e-03
  3.1790603e-02
  7.4355449e-03
 -4.7661699e-03
  6.9615967e-03
  4.2629587e-03
  3.4501068e-02
  4.1415057e+00
  5.3352318e-03
 -9.2625460e-03
 -6.3179905e-04
 -2.4405788e-03
 -1.0521546e-03
  2.8551742e-03
  2.4278577e-01
  1.2832200e-02
  2.6956799e-03
  1.9247856e-02
  1.2001347e-02
 -9.7762570e-02
 -4.5340232e-05
 -8.3679808e-03
  5.3187601e-02
  9.3666218e-05
  1.0243067e+00
 -4.9814023e-03
 -1.2109193e-04
 -5.7247463e-03
  1.0172984e-03
  1.5348393e-02
  3.4108926e-03
  8.9564472e-03
  8.7695336e-03
 -1.5255040e-02
  5.5124895e-03
 -1.4406893e-03
 -1.8057043e-03
  9.7209327e-03
  2.2607639e-03
  1.8334632e+00
  2.9508502e-03
  1.9256163e+00
  6.1305547e-03
 -3.4399671e-04
 -6.0943603e-05
 -2.2662638e-03
 -6.2807831e-03
 -6.1673485e-03
 -7.7633047e-03
  8.3945174e-04
  2.5958898e-03
  3.2579355e-02
  8.0969315e-03
  1.1841259e-02
 -5.6091193e-03
  5.6561437e-03
 -2.8943054e-03
 -1.7495289e-01
  1.6327041e+00
  1.3472278e-03
  2.9093055e-03
 -1.4594378e-01
  3.9099978e-05
 -3.5813074e-03
  1.4355226e-02
 -3.2675736e+00
  7.7246302e-01
  3.2979652e-01
 -2.2629564e+00
  1.2508775e-01
  1.0910830e-01
  9.9869184e-02
  2.0748684e+00
  2.8528926e+00
  3.8111996e-02
 -3.7558526e-02
 -1.8887268e+00
  1.8012775e-01
  1.2112562e-02
  2.7034700e-01
 -8.6173207e-02
  8.9350552e-04
 -4.7588825e-02
  2.0588112e+00
  3.0576995e-01
 -9.0859592e-01
  2.1323270e-01
 -4.9398711e-01
 -7.0964354e-01
  1.6707097e-03
 -2.6370442e-01
 -1.4246336e-01
 -1.4657512e-01
 -6.4640337e-01
 -9.5719755e-02
 -6.1261016e-01
 -8.5064638e-03
  3.1453273e-01
 -5.2656019e-01
 -3.5180387e-01
  1.4014530e-01
 -1.1783829e-02
 -2.4044305e-01
 -9.3190843e-01
  4.1005336e-02
  9.1569167e-01
 -2.1726674e-01
 -1.5324403e-01
  4.9169686e-01
 -3.1199152e-02
  3.3444130e-01
 -1.1223201e-01
 -1.2723358e-03
  2.7801698e-01
 -1.1332841e-02
 -5.8069211e-01
 -4.4289988e-01
  4.0485967e-02
  1.4280359e+00
 -1.1570818e+00
 -9.0046585e-01
  1.8377820e-01
  9.4877712e-02
 -8.8612743e-02
 -4.1093347e-03
  3.8441483e-02
  1.2418668e-03
 -3.3702152e-03
 -7.7986033e-03
 -1.0528866e-01
  1.0180757e+00
  1.8395595e-02
 -1.0009729e+00
 -4.1473672e-01
 -1.5611075e+00
  2.0598027e-01
 -1.9406602e+00
 -2.3621087e-01
  5.6771547e-01
  1.1753932e+00
  1.7639306e-01
  2.3529592e-01
 -6.4913183e-02
 -4.2018268e-01
  1.2012149e+00
  6.0620509e-02
  9.3061727e-01
 -1.9532694e+00
 -5.4233408e-01
 -2.3855452e-01
  1.5996598e-03
  6.6362607e-01
 -5.1592851e-01
  1.4285616e+00
 -4.1703010e-01
  3.7902728e-01
 -1.8207624e+00
  8.7423283e-01
 -8.4612608e-01
  3.8410795e-01
  4.1920390e-02
 -1.6856588e-01
 -1.3077162e-01
 -1.1225041e+00
 -1.5113666e-02
  1.6909678e-01
  7.6680318e-03
  1.3148230e-01
  1.5058814e-01
  3.7464553e-01
  3.7577224e-01
  2.5155563e+00
  9.7186917e-01
 -1.4257295e+00
 -5.1180661e-01
 -2.8271804e-02
  1.4954197e-02
  1.2706558e-01
  7.9634029e-01
 -9.3823597e-02
  1.5723725e-01
  9.8275840e-01
  3.4677982e-01
  5.5633759e-01
 -3.0193603e-01
  1.1582346e+00
  1.3793761e+00
  2.0543106e-01
 -1.4184599e-01
 -4.9244523e-01
 -6.2588573e-01
  1.1127989e-03
  5.9850752e-01
 -5.3795730e-03
  4.1837656e-01
  4.8040584e-02
 -9.0871549e-01
  8.0250025e-02
  6.1604667e-01
  3.9759147e-01
  6.1939156e-01
  4.2296547e-01
 -1.9936745e+00
  9.7935236e-01
  1.4776033e+00
  9.1308725e-01
  2.2793102e+00
 -2.6338990e+00
  2.3183522e+00
  1.4941984e+00
  1.9046787e+00
 -4.4934940e-01
  4.9824521e-01
 -3.8540950e-01
 -8.6632413e-01
 -1.9028016e+00
 -1.7145081e-01
  8.9075387e-01
 -2.3432367e-01
 -6.9331759e-01
  1.1286664e+00
 -5.0157005e-01
 -1.8642373e+00
 -1.4423351e+00
  9.4022296e-02
  3.2875830e-01
 -5.1495761e-01
  3.8696499e+00
  3.5922280e-01
  2.0073607e+00
  4.1227975e-01
 -1.3886164e+00
 -2.5497925e-01
  2.1623268e+00
 -9.6254736e-01
 -9.8153996e-01
  3.1969705e-01
 -1.3069530e-01
  7.2143507e-01
 -2.2449720e+00
 -1.4072274e-01
  1.8340372e+00
 -2.0586934e+00
  7.1437997e-01
  1.1403241e+00
 -4.6993762e-01
 -1.9725791e+00
 -4.2808416e-01
 -2.8788503e-03
  1.7161690e+00
 -6.7872739e-01
  1.4711957e-01
 -3.0985576e-01
 -4.2679742e-02
  9.5026173e-02
 -3.5075265e-01
 -3.3729410e-01
 -1.7520000e+00
  3.4974718e-01
 -1.6394482e+00
  1.6530300e+00
 -2.5476241e-01
 -3.1232834e-01
 -9.6161619e-02
  3.6207539e-01
  9.0614212e-01
 -1.5618280e-01
 -3.5098708e-01
 -3.1930673e-01
 -1.5243143e+00
 -4.7375378e-01
  2.5954881e-01
 -6.0367459e-01
 -3.3369485e-01
 -2.8422907e-01
 -5.6722897e-01
 -5.4075921e-01
 -1.2644793e+00
 -2.0550213e-04
  4.8086536e-01
  4.3403223e-01
  2.3690051e-01
  2.1775904e+00
  6.2074471e-01
 -2.8854382e-01
 -3.5188472e-01
  2.1170677e-01
 -1.2477519e-01
 -3.3487365e-01
 -6.5009296e-01
 -3.0773118e-02
  2.0327671e+00
 -4.4555229e-01
  2.7809349e-01
  2.3493733e+00
 -2.0382415e-01
 -3.1402865e-01
  1.2433600e+00
  7.1567050e-03
 -7.3723406e-01
  5.4937267e-01
 -1.1853514e+00
 -8.7461956e-03
 -9.0410358e-01
 -8.0740161e-02
  2.3168936e+00
 -3.2240319e+00
  1.8604636e+00
  3.7248039e+00
  1.5858350e-02
  1.3310452e+00
  4.3406184e-03
  1.5995474e+00
 -7.2577053e-01
  1.5186003e-03
 -3.5836992e-01
  6.9221199e-01
 -9.1447109e-01
  8.9894462e-01
 -2.4708568e-01
  4.3466979e-01
  7.9415031e-02
 -6.4774811e-01
 -1.0167564e+00
  2.6995987e-03
 -9.7750009e-05
 -1.5370216e+00
 -7.7748585e-01
  3.2455364e-01
  2.3802078e+00
 -8.4641743e-01
 -1.4595679e-03
 -4.3187800e-01
 -6.0097903e-01
 -4.7546452e-01
  3.7083986e-01
 -3.0341612e-03
 -4.9556506e-01
 -1.9016258e-01
  1.1291424e+00
  1.1194923e+00
 -2.7463465e+00
  1.9451890e+00
 -7.7273941e-01
 -2.2595247e-02
 -1.0112712e+00
  4.7504383e-01
  1.8700859e-02
 -2.3822880e+00
 -1.4322428e+00
  9.9017227e-01
  1.5226219e+00
  2.5872161e+00
 -5.9089452e-01
 -8.0824703e-01
 -7.0584452e-01
  4.7175236e-02
 -5.5502307e-01
  1.0114656e-02
  1.9386353e-04
  2.6927728e-03
 -6.0890533e-02
  1.8209453e-01
  3.6546153e-01
  1.6248438e-03
  1.0316545e-03
 -5.6878090e-02
 -1.0052704e+00
  3.0524619e-03
 -1.1520673e+00
  1.8305601e-01
 -3.1896300e+00
 -3.2487047e+00
 -7.7234447e-02
 -1.6460452e+00
  2.2881114e+00
  1.8018509e+00
 -5.4874706e-01
  1.0544620e-01
 -1.0584671e+00
 -7.7660710e-01
 -1.7245487e+00
 -1.2717840e-01
  1.2442913e+00
 -1.0421678e+00
 -6.3485080e-01
  6.4801991e-01
 -6.6730732e-01
 -2.1933777e+00
 -9.6858644e-01
  4.8418362e-03
 -6.6029400e-01
  8.0048794e-01
 -3.9289508e-02
  3.0236003e-01
 -1.0487919e-01
 -7.2755769e-02
  2.3096153e-03
  2.6991266e-01
 -1.6734459e+00
  2.3637588e+00
  4.0344514e-02
 -2.6826375e+00
 -3.5053876e-01
 -1.0172389e-01
 -3.8599601e-01
  6.3787395e-04
 -1.8921595e+00
 -1.5656745e-01
 -3.7675850e+00
 -2.4255309e+00
 -1.0525659e+00
 -6.2964779e-01
 -7.4179840e-01
  3.9456441e+00
  5.3606518e-03
  1.4240015e-01
 -8.1929344e-01
 -1.4516941e+00
  1.4763962e-01
  1.1585636e-01
 -2.3814432e-01
 -1.4087588e-01
  9.3903802e-03
  6.8325870e-02
 -1.4846357e+00
 -1.1603611e+00
  5.6473929e-01
  6.9641292e-01
  3.1109182e-02
  8.1654322e-01
 -1.1662534e-02
 -6.4714181e-01
 -6.9420362e-01
 -2.1478622e-03
  1.3084601e-01
  2.2907355e-01
  2.5462339e-02
  4.3673497e-01
 -1.0310129e+00
 -1.4687368e-01
  7.1960795e-01
  4.5811325e-01
  8.5960740e-01
  7.8630251e-01
  1.8227035e+00
 -1.7310199e+00
  5.0667769e-01
 -3.0004499e+00
  1.0456103e+00
  7.0213899e-02
  9.5879793e-01
  1.0606241e+00
  4.4703189e-01
 -1.8595818e-02
  3.1814892e-03
  2.7556339e-01
 -7.4859792e-01
 -4.3570392e-02
  9.4521612e-02
  3.4716392e+00
 -3.7701494e-01
  8.1779748e-01
  9.1249979e-04
 -7.9589987e-01
  5.7680446e-01
  1.0348884e+00
 -7.7827430e-01
  1.6215799e+00
 -1.2192032e-01
 -9.7472364e-01
  2.3767498e+00
 -5.5583473e-03
  1.2524651e-03
  5.1471901e-01
 -9.3271208e-01
  4.8916942e-01
 -4.3149271e+00
 -5.7763076e+00
 -1.0026723e+00
  9.6000411e-02
  8.0921389e-03
 -7.0091276e-03
 -6.3230759e-03
 -3.2527323e+00
  9.2964834e-01
 -4.1371343e-01
 -6.6696769e-01
 -2.2791477e-02
  5.8768574e-02
 -2.0144968e+00
 -1.5544309e-03
  1.6876662e+00
 -1.6016271e+00
 -2.1156042e-03
  2.1428771e-02
 -3.8308441e-03
 -1.9027213e-02
 -7.5055701e-01
  7.4309647e-01
  8.2934588e-05
  1.8369291e-02
 -1.6717300e-01
 -4.4229932e-02
  2.2896728e-03
 -3.5521220e-02
  1.8007466e+00
 -1.3406768e+00
 -1.4859613e+00
  1.6984204e+00
 -3.3701575e-01
  1.1045171e+00
  2.9756496e+00
  1.0184617e+00
 -2.7810174e-01
 -9.4974905e-01
  1.7212953e-01
  2.8374572e+00
  4.0398724e-03
 -9.6608108e-01
  8.0689222e-01
 -8.2862276e-01
  3.2692397e-01
 -1.3376827e+00
 -3.0098554e-01
 -7.3378021e-01
 -1.4742423e+00
 -7.8972153e-02
 -3.9224960e-03
 -2.6948910e+00
  3.4597829e-01
 -6.1481917e-01
  1.3458775e+00
 -1.5073939e-01
  4.8556146e-01
 -5.6976950e-01
 -2.0094748e+00
 -6.5076375e-01
 -1.2547890e+00
  3.4470124e+00
 -5.8850367e-02
 -2.8259852e+00
 -4.0767133e-01
 -2.0831771e-01
 -6.9076651e-01
 -2.4094207e+00
 -3.4154910e-03
 -1.5375501e+00
 -1.6008046e-02
 -9.9169028e-01
 -5.7591265e-01
  9.0061603e-03
  2.1121874e-01
  5.7219803e-01
  2.5305590e-02
 -1.4342399e+00
 -6.1381257e-01
 -2.1743460e-02
 -3.0859518e-01
 -2.6206997e-01
 -1.2950630e+00
 -1.7836874e+00
 -2.1459697e-02
  1.1249735e+00
  5.8073434e-04
 -2.2155810e-02
 -3.9587808e-01
  3.0321310e+00
 -1.7251070e+00
 -1.5965676e-01
 -3.6045995e-01
 -1.8906958e+00
  3.6701748e-01
  8.4782965e-02
 -1.9720378e+00
 -4.2503215e-03
  1.7743671e+00
  2.0192483e-01
  7.3124408e-03
  2.2549638e-01
 -5.4367185e-01
  5.9588087e-01
 -8.3252871e-01
  5.9539551e-01
 -1.4719416e-02
  2.1248403e-01
 -3.0047153e-03
 -3.7695222e-02
 -4.4152819e-02
 -1.9513720e-01
  1.4967132e-02
 -2.7336748e-02
 -1.7490700e+00
 -1.5073485e-02
 -1.4030612e-04
 -6.0663093e-03
  1.7191503e-03
 -1.3470472e-02
 -1.6863574e-01
 -7.6533100e-03
 -3.1190327e-01
 -8.8176616e-03
 -2.3687679e-02
  1.0580315e-01
 -9.9841589e-01
  5.2921027e-01
 -1.7024975e-03
  6.6758752e+00
 -4.2014450e-02
 -5.4975480e-02
 -1.2497673e-02
 -1.4557348e-03
 -4.5492181e-01
  2.5277307e+00
 -6.4838678e-03
  1.6805409e-01
 -1.5867937e-03
  9.9808145e-03
 -5.7350689e-01
 -7.7420590e-04
 -7.0970110e-03
  1.0842993e-03
  3.8813406e-01
  4.8962943e-02
  3.0876545e-02
 -4.5491029e-03
 -1.1922055e-02
  2.4793660e-02
 -1.2725322e-01
  3.3623478e-01
 -1.8455276e+00
 -7.9291845e-03
  5.8876695e-03
  7.3716855e-03
 -2.7368306e-03
 -1.1843731e-02
 -1.5151742e-02
 -7.7385223e-04
 -3.3870311e-03
  3.5987791e-02
 -5.7423962e-03
 -2.0590949e-01
 -3.8751262e-01
  7.0939380e-01
 -1.2099013e+00
  1.7108061e+00
 -4.4353458e-01
 -8.5784787e-01
  8.7357455e-01
  3.1117205e-02
 -1.0866411e+00
  1.9242071e+00
 -7.2415155e-01
 -1.6603759e-01
  8.8374242e-03
  7.2669111e-02
 -3.1215753e-03
 -9.0560985e-01
  2.9631682e-02
 -1.7829199e+00
 -7.0112018e-04
 -7.7156740e-01
 -3.1898826e-02
  4.1053031e-02
  1.5242856e-04
 -8.2754903e-03
  1.8807480e+00
 -2.5015278e-02
  4.9186707e-01
 -8.5853952e-01
  1.3516322e+00
 -1.7626616e-04
 -8.0785891e-03
  8.3109236e-04
  1.9971375e+00
 -1.4429359e-02
  4.4602146e-03
 -9.0042371e-01
 -7.8524268e-01
 -1.2766706e+00
 -5.8659166e-01
 -2.6625726e+00
 -5.4024439e+00
 -1.8925270e-01
  6.3643651e-03
 -5.8899021e-01
 -1.5499604e-01
 -1.4546719e-02
  4.9127536e-03
 -1.0850270e-01
 -7.8174299e-01
  5.1095986e-01
 -1.1169306e+00
 -2.4398675e-03
 -1.5233230e-02
 -7.8896451e-01
 -3.7240654e-01
 -7.1436808e-02
  1.4859532e-02
  2.1722338e+00
 -1.0587166e-03
  4.3185744e-01
 -1.1767885e-02
  1.5670089e+00
  1.7369991e-03
 -1.2868994e-01
 -8.6415175e-04
 -2.2807608e-03
  1.3300264e-02
 -1.0047387e+00
  1.1177112e+00
  4.1303340e-01
  1.1600026e+00
  2.3765163e+00
 -2.6259921e-03
 -3.7343112e-01
  1.9191080e-01
 -1.3914913e+00
  2.0783922e-01
 -1.1399641e+00
  1.6125576e+00
  1.1552639e+00
  9.3163949e-01
  1.5953894e+00
 -9.3245137e-01
  1.5904402e+00
 -5.1512849e-01
  1.2211431e-01
  1.2537231e+00
  2.4176140e-01
 -4.8001918e-01
 -1.5052532e-02
  5.9015012e-01
  9.1762260e-02
 -4.0887418e-01
 -9.4274473e-01
  1.2234618e-01
  1.4695418e-01
 -7.9004788e-01
 -1.4748643e-03
 -2.5807199e-01
 -1.2902139e+00
 -3.2592162e-02
 -1.2691963e+00
  9.8457873e-01
  2.4259286e+00
  1.5356128e+00
  1.1427008e+00
 -1.4595830e+00
 -9.2217706e-02
  2.6983783e+00
 -1.7179815e+00
  1.0746140e+00
  1.8308265e+00
  7.7296263e-01
 -3.0282348e-01
 -8.8963017e-02
  1.7933813e+00
  6.8435359e-01
  7.0099950e-01
  3.4190452e-01
  2.0028992e+00
 -1.2681095e-01
 -9.2076188e-01
  1.0419235e+00
 -3.1479090e-01
  8.3130943e-03
  1.1565963e-01
 -8.3831683e-02
  3.6694892e-02
 -4.4098303e-01
  1.6632193e-01
  5.9777188e-01
 -6.2259209e-01
  1.8781169e-01
  1.3347242e+00
  3.5090536e-01
  2.4307654e-03
 -3.5577184e-01
 -4.4982802e-02
  6.1621804e-02
  1.0304792e+00
 -1.0129973e+00
 -3.5047993e-02
 -2.7774978e-02
  1.7810292e+00
 -7.5928301e-01
 -2.0166142e+00
 -5.8585495e-01
  4.0634078e-01
 -4.0594138e-02
 -1.5418776e-03
  4.7501381e-02
 -2.6088892e-03
 -5.0587553e-01
  6.0400289e-01
  1.9502956e-01
  2.9277918e-01
 -2.6733611e-02
 -3.7767985e-01
  2.8413358e-01
 -2.4104217e-01
 -4.9818560e-02
  1.8216801e+00
 -1.2796454e-02
 -9.4561279e-01
  2.2257991e+00
  1.8453922e+00
  4.3844685e-01
 -1.8583427e-01
 -2.2035766e+00
  5.6450170e-01
 -5.2011982e-02
  9.3782026e-01
  5.6277639e-01
 -3.1849247e-01
  8.1566520e-02
 -1.1241748e+00
 -4.2919077e-02
  8.2174251e-03
 -6.1344532e-03
 -3.3207596e-03
 -2.8134154e-02
 -1.6222655e+00
 -1.7276607e-01
  2.8850755e-04
 -2.9274300e-01
 -7.1599495e-01
  1.8739718e-01
 -1.0432687e-01
 -2.8871071e-01
 -1.8651668e-02
 -4.7537950e-01
 -1.1479169e-02
 -2.1451792e-02
 -6.9878058e-04
  4.5302119e-03
  9.9349786e-03
 -2.3420480e-01
 -4.4702104e-01
 -2.3778267e-01
  1.0547555e-02
 -2.1252117e-01
 -9.8676157e-01
  4.1137224e-01
 -3.1782290e-01
  2.7658367e-03
 -4.7193388e-03
  8.6400425e-03
  5.9876945e-03
  9.3978882e-02
  1.9002538e-03
 -8.2896590e-02
 -1.9213852e-02
 -3.7691246e-03
 -1.2200555e-03
  4.0799360e+00
  9.8022465e-03
  3.2213624e-03
 -4.7670342e-03
 -6.5323487e-03
  1.2682390e+00
  6.5606176e-03
  6.3433862e-01
  5.4827379e-04
  7.1185608e-03
  7.3843738e-03
  9.1865622e-03
 -2.6827648e-03
 -6.5655573e-03
 -1.0687279e-03
  1.4919271e+00
  1.0124280e-03
 -1.1273164e-02
  1.2846110e-02
 -8.2742507e-03
 -2.8095937e-03
 -1.7849062e-01
 -4.5121955e-03
 -8.5551594e-04
 -2.3305442e-03
  1.7157402e-02
  2.5567363e-03
 -4.6375912e-01
 -4.8692929e-04
  1.0857663e-02
  1.0831726e-03
  6.5816427e-04
  1.1258953e-02
  6.7378138e-03
  1.1010330e-01
 -1.2409331e+00
 -4.3443495e-05
  2.1260874e+00
  9.3624154e-03
  1.4421185e-02
  4.5818551e-03
  8.3856250e-04
  2.8621040e-03
  3.1412612e-03
  2.2368948e+00
 -3.6446680e-03
  1.8435447e-03
  5.6379004e-03
 -2.8778937e-01
  7.0405664e-04
 -5.0364817e-03
 -8.5263867e-03
 -7.5220461e-03
 -1.2127011e-03
  9.4265252e-04
 -1.1077376e-04
 -2.5436218e+00
 -8.1787901e-03
 -2.0762062e-01
  2.9662838e-03
 -3.1384021e-02
  2.3037723e-01
 -2.4255218e-01
  1.3907639e+00
  5.5901593e-01
 -1.5935615e-01
 -4.0222588e-01
  1.5065084e-01
 -2.6244324e-01
  1.7233866e-01
 -3.7791873e-03
  4.4274242e-03
  6.7447876e-03
 -5.4906350e-02
  2.5874709e-03
  9.1232747e-02
 -3.6386712e-03
 -1.0347364e-03
  7.4777374e-04
  1.8258913e-01
 -3.0934536e-03
 -5.7711422e-02
 -2.0419855e-02
  4.2195802e-04
 -9.2319865e-03
 -4.8369281e-02
  8.8273659e-03
 -4.7790604e-03
 -1.1051592e-03
  2.4991098e-01
  1.4747377e-03
 -4.2118942e-03
  5.7016385e-01
  1.7674414e-03
  5.3927689e-03
 -2.9406297e-01
  1.7850937e-02
 -1.6341953e-02
  4.1900109e-03
  7.8103724e-03
 -3.3590272e-03
 -3.7678559e-03
 -4.5919191e-02
  2.5466066e-03
 -1.7843448e-03
 -7.5514116e-03
 -2.5968498e-03
  7.2710132e-03
 -1.7808720e-01
  1.0043705e-01
  4.9022296e-03
 -8.4892120e-03
  3.1614915e-01
 -1.0983091e-02
 -7.6556555e-03
 -1.0224019e-02
  7.0412445e-04
  9.8244175e-03
  1.6041588e-02
 -1.8297905e-03
 -9.5143272e-03
 -1.1642557e-05
 -1.3631257e-03
  9.4116116e-03
 -1.1194462e-02
  1.0498443e+00
 -2.1683563e-01
  8.4885114e-01
 -5.5857652e-01
 -3.0155628e+00
  3.5477966e-01
 -7.9512918e-01
  5.1336583e-02
  3.2243838e+00
  4.2653152e-01
  3.6925825e-01
  2.6147792e+00
 -4.9473250e-01
  2.7261756e-03
  6.9936983e-02
 -4.6344367e-03
  1.0090944e+00
  1.1164983e-01
  7.1735525e-01
 -7.5081132e-02
  5.1262349e-01
  5.9523596e-03
  1.8957195e-01
  4.6290222e-01
  2.6062016e+00
  1.1560163e-01
 -1.9746508e-01
  1.1183128e+00
 -2.7750093e-02
  3.7375361e-01
 -1.5158434e+00
  1.8374225e-01
 -8.0475187e-01
 -1.6148678e+00
  1.1823120e+00
  3.0484139e-03
 -6.6418087e-01
  3.5125867e-04
 -7.5253997e-06
 -4.1902438e-03
 -1.4328843e+00
  8.9738602e-03
  7.7669573e-01
 -5.8146915e-03
  1.6415919e+00
 -2.6818538e-01
  2.1163312e-01
  6.0630316e-01
 -1.3464274e+00
 -6.7540655e+00
  4.4890895e-01
  6.5029573e-01
  9.1783202e-01
 -7.7284950e-01
 -9.8173495e-04
 -2.2091543e-02
  5.9114378e-03
 -2.5080286e-03
 -1.6686396e-03
  5.5277683e-02
 -1.8681882e-02
 -9.3559339e-04
 -1.4932462e+00
 -6.1636243e-02
 -1.3963936e-02
  4.3716636e-03
  2.7895828e-03
 -7.0715020e-03
  1.5627443e+00
  1.0910043e+00
  1.1263760e-01
  2.0396824e-01
 -4.8027474e-01
 -2.0742629e+00
 -8.8401622e-01
 -7.5070620e-01
  1.4157087e+00
  2.2793289e-01
 -1.1013377e+00
  3.9331756e+00
  3.7306792e-01
 -1.1912462e-01
 -4.2025304e-01
  2.9418132e-01
  5.9230074e-02
  1.9831846e+00
 -2.1085794e+00
  1.0500631e-03
  2.1960837e-01
  9.3148452e-01
  1.1510940e+00
 -3.5701492e-03
 -7.9223469e-02
  1.5389905e+00
 -1.6891167e-01
  3.0510199e-01
  5.3827459e-01
  6.1978531e-01
  1.6200873e+00
  2.3975481e-01
 -5.8599603e-01
 -8.6472076e-01
 -3.0780807e-03
  3.9854124e-02
  3.9366905e-02
  1.6699018e-02
  1.4815874e+00
  5.2790779e-01
  1.2725183e+00
  1.8782319e-03
  3.6900139e-01
  7.6377469e-01
 -7.5459975e-04
  8.9742757e-02
 -3.9632174e-01
  1.9396333e-01
 -9.4625130e-03
  6.0651371e-05
 -1.3894213e+00
  4.2885584e-01
  5.6665321e-04
 -2.0986607e-03
 -3.6566884e-03
 -2.3300709e-02
 -1.2845381e-02
 -1.6409424e-03
  1.1662869e-01
 -8.2460903e-03
 -4.3660407e-03
  1.7912502e+00
  1.7827798e-02
  1.7261290e-03
  1.0736720e-01
  4.3451812e-02
 -2.3214734e-01
  1.3800170e+00
  1.2920591e+00
 -8.5905623e-01
  3.6614165e-01
  5.6520176e-01
 -1.6016631e+00
 -5.3520036e-01
  1.1005824e+00
  1.0727206e+00
 -3.2858416e-01
  2.3088560e-01
 -6.7834127e-01
  2.8219932e-01
 -3.1503973e+00
 -5.8876401e-01
  2.1481112e-01
 -1.9629201e-01
 -9.0716738e-01
 -3.2653758e-01
 -9.5916277e-01
  1.7161746e-01
  1.0668001e+00
 -8.9949942e-01
  1.6434904e+00
  8.2401693e-01
 -1.5646851e-03
  1.2814289e-01
  4.3625298e-01
  9.7358221e-01
 -2.8659171e-01
 -2.1580005e+00
  4.7426675e-02
 -3.6827907e-02
 -7.7115941e-01
  3.1312108e+00
  1.3192840e+00
 -8.6938282e-03
  2.2208271e+00
  1.3734592e+00
 -7.8035966e-02
 -1.5962490e+00
  9.7500801e-01
 -2.4096491e+00
 -2.0602815e+00
  4.8628896e-01
  1.9470235e+00
 -1.0170089e-01
  3.3918507e-02
 -7.9497910e-01
  6.5614980e-01
  6.3621563e-01
  3.3114445e-01
 -2.1682407e-01
 -1.7047011e+00
  1.3702761e+00
 -9.4711232e-01
 -3.0674124e-02
  1.1515137e+00
  5.6052272e-04
 -3.3907106e-04
  1.4617831e-01
  6.1611134e-01
  2.1316970e-02
 -4.2646584e-01
 -1.5841973e+00
  4.3680984e-01
  1.4615189e-03
 -5.2383935e-01
 -1.3676175e-01
 -1.7930146e-02
  5.0691324e-01
  2.3738120e+00
  2.8476200e+00
  1.5213474e+00
 -8.5953379e-01
  4.0845159e-02
  1.2603496e+00
 -6.6848062e-03
 -2.3694769e-02
  2.2013147e+00
 -1.1336495e+00
 -1.3258188e+00
 -1.0766192e-02
 -3.6421087e-02
 -1.8783195e-02
 -6.9454752e-02
 -9.6420211e-01
 -8.7885487e-01
  4.1699190e-02
 -4.2479098e-02
 -1.2236332e-02
  2.4443486e-04
  2.0283726e-01
  7.4923434e-03
 -1.7134378e-03
 -1.0032920e-01
  1.2894144e-02
  1.1934574e-01
  4.8400201e-02
 -5.6488053e-03
  6.6400290e-04
 -6.1615300e-01
 -3.7984085e-01
  1.2900709e-02
  2.7932040e-03
 -3.0266958e-01
  1.0805755e-02
  4.6318516e-01
  2.3592893e-02
 -1.4808971e+00
 -1.7234871e-02
 -4.0506291e-01
 -6.1941274e-02
 -2.0522749e-01
 -6.7580914e-01
 -1.3205837e+00
  2.3684928e-03
 -1.8497135e-02
  8.9374948e-01
 -2.0800731e-01
  3.5872562e+00
 -1.0447332e+00
 -6.3639893e-03
 -1.4485277e-02
 -9.9430650e-02
  3.6474329e-01
 -1.0127775e-02
  2.1272118e-03
 -2.6736007e+00
 -2.4000548e-03
 -1.0892619e-04
 -3.2093489e-01
  4.2903041e-03
  4.1900212e-03
 -1.1916768e-02
  1.4340703e-02
 -6.9752109e-04
  3.9830062e-01
  1.3685821e-01
  7.9464269e-01
 -1.8719550e-02
  4.1292000e-01
  4.2455005e-03
 -1.2754862e+00
  2.9250154e-01
 -9.3363635e-02
 -1.0982215e-01
  7.0817757e-01
  3.7050251e-02
  2.0635429e-01
 -4.5548500e-03
 -1.1025430e-02
  2.0233844e-03
 -1.4514363e-02
 -6.4296645e-01
  4.4052091e-01
 -2.2613639e-02
 -3.5261300e-01
 -1.7345443e+00
  7.4598378e-01
  1.2403317e-03
  1.4432019e-03
  3.6040998e-01
  2.9572949e-02
 -5.2351463e-03
  3.6086690e-01
 -1.7961061e-03
 -5.1702347e-02
 -3.3486705e-02
  1.1009391e-01
  9.0340097e-03
  1.3572963e-01
 -3.9706659e-03
 -2.8028255e-03
  4.2574652e-03
  2.9101707e-03
  5.9953427e-01
 -1.1505298e-01
  3.1465802e-01
 -5.2340388e-01
  3.6120616e-02
 -1.2268559e-02
  8.8319355e-01
 -1.1692529e-03
 -3.8239804e-01
  7.8839407e-04
  1.9047742e-01
 -6.8508297e-02
  1.2826204e-01
  2.8159466e-01
  2.6852429e-01
 -5.6025485e-04
  2.7084962e-02
 -7.7380735e-01
  3.4687077e-03
  3.3015113e-03
  5.8932602e-03
 -3.5353107e-03
  4.2340932e-03
 -1.1390720e-02
 -6.8099638e-03
  4.2295423e-03
  1.1638573e-02
  1.2702195e-03
  8.4721921e-03
 -5.6047173e+00
  2.1739291e-01
  4.0247789e-01
 -1.8394218e-01
  2.9760247e-01
 -1.8207523e-01
  2.2991279e-02
  5.4364872e-01
  5.0349587e-01
 -1.9173062e-01
 -2.7537592e-02
  2.2431519e-03
 -1.6602111e-01
 -4.5232046e-01
 -1.1471481e-03
 -3.4939197e-01
 -8.7927617e-02
 -1.1012394e-01
 -5.2366131e-03
 -6.3507375e-03
 -8.6637894e-03
 -1.2444397e+00
  4.1389003e-02
 -3.0431122e-02
  7.5999741e-04
 -6.6334802e-01
  2.0149870e-02
  9.0350188e-02
 -2.6602432e-01
 -9.9163391e-03
 -4.1127270e-03
  4.2322880e-01
  4.9268118e-01
 -9.7485818e-02
  5.8093569e-03
  2.7237588e-03
 -2.3161694e-03
  2.2702059e-03
 -8.6015701e-02
  5.5560969e-02
 -2.3162180e-01
 -2.0158611e-02
  3.4362125e+00
 -5.6638229e-03
 -1.8919434e-01
 -1.3739884e-02
 -2.8789625e-01
 -4.2744633e-03
 -1.0887827e+00
 -7.9806857e-02
 -1.7752245e-01
 -1.7867267e-01
 -1.2125592e+00
 -2.9908996e-03
  1.1057142e-02
 -3.0575061e-01
 -1.9047076e-01
  9.9751092e-03
  6.9071921e-03
  6.8681506e-03
 -1.3806212e-02
  4.7143949e-03
 -2.1909932e-03
 -8.3941808e-03
 -4.4703925e-01
 -2.0382557e-02
  9.1348851e-01
 -3.3464056e-04
 -3.2349564e-02
  1.8864162e-01
 -1.3445910e+00
 -3.3357798e-03
 -1.4133400e+00
  2.8566617e-01
 -2.1923475e+00
 -1.5065470e-03
 -6.1775380e-01
 -2.7117249e-02
  1.1924636e+00
  4.9275391e-02
 -8.5513508e-01
  9.8095340e-01
  4.8726434e-01
  4.7618496e-01
 -1.5014659e-01
 -7.1180743e-01
  7.1844041e-02
  3.3389139e-01
  3.7702909e-01
 -7.9214901e-01
 -4.8740562e-02
 -1.0321497e+00
  2.2389619e-01
  1.6011170e+00
 -2.8003518e-02
  1.6754879e-01
 -6.6204064e-02
 -2.7012101e-01
  5.4879274e-02
 -1.3136047e-01
 -1.2903372e+00
 -4.6945390e-01
  9.1036716e-03
 -2.4042139e-03
 -9.2299169e-06
 -5.6680581e-03
 -7.2076869e-01
 -8.2815051e-01
 -5.5769235e-03
 -3.0596705e-02
  1.8686266e-01
 -3.6866717e-02
 -4.1003269e-01
  4.7110686e-01
 -4.0557940e-02
 -7.9575978e-02
  9.3275487e-01
 -6.8339998e-01
 -1.1682805e-01
  1.2624912e-01
  2.3751808e-03
 -5.4042306e-02
 -2.9257808e-02
  1.0248481e-01
  2.2504285e-03
 -9.2752613e-03
 -9.9400254e-03
  5.7239179e-03
 -3.0524483e-01
 -5.6652564e-01
  3.3778418e-02
 -4.7494657e-02
 -7.2398663e-02
 -7.8593278e-01
 -6.5545100e-01
 -6.5235949e-01
  1.2799682e-01
 -1.9264393e-01
 -1.1111413e+00
 -5.8500850e-01
 -1.5150423e+00
  1.9965647e-02
 -5.3179926e-01
 -6.9514591e-01
 -4.0991709e-02
  2.5447533e-01
 -1.7007388e-02
  2.6940175e-03
  7.6717502e-01
  2.4670030e-01
 -7.3369672e-03
  2.0153370e-01
  2.4094276e-02
  2.1425524e-01
 -2.7862257e-01
 -1.1208183e-02
  1.1781526e-03
  1.6182035e+00
 -4.4768152e-01
  2.6782642e-03
  1.7384250e-02
  4.0589720e-03
  8.2757318e-01
 -9.2031725e-02
 -2.2697034e-03
 -3.7193498e-01
  2.8254223e-01
 -2.0314548e-03
  8.5476255e-03
  1.3732376e-02
 -1.2555225e-02
 -5.5293674e-03
  6.3431863e-04
  2.9636652e-03
  2.2356530e-01
 -2.7265763e-03
 -1.6189246e-01
  1.5339050e-01
  2.2048688e-02
  5.8413541e-01
  1.0641024e-02
  4.2396814e-02
  7.9104509e-03
 -8.2171988e-01
  1.7868228e+00
  2.6209319e-01
 -6.9537401e-01
  1.3724083e-01
  6.8024747e-02
  8.5245723e-01
  1.8301323e-03
  1.2225728e-01
  4.6598297e-01
 -2.5609817e-04
 -3.0598177e-03
 -4.7325026e-02
  3.2352395e-02
 -2.9455110e-02
 -1.7084143e-03
  6.7034853e-03
  6.3191475e-03
  3.6539454e-03
 -9.5356898e-03
 -2.5038628e-03
  2.9817722e+00
 -2.7086586e-03
 -9.3352246e-01
  6.3799702e-02
  1.4901617e-01
  5.5967167e-02
 -9.7331131e-01
 -2.8717911e-01
  8.3097500e-01
 -8.4852129e-01
 -3.0359662e-01
  5.2273279e-01
 -1.6542113e+00
  4.4859839e-03
  6.1367385e-02
  3.8407964e-01
 -4.4603777e-01
 -5.3733844e-01
 -1.6186118e-01
  2.6144662e-01
  4.4384828e-01
 -1.4906764e-02
  1.7391927e+00
  2.0030286e-02
 -2.5019435e-02
  1.0817296e-02
  3.0751094e-02
  6.4394169e-04
 -1.0347668e+00
  1.6832560e+00
  5.5560642e-01
  4.6838257e-02
  8.0821693e-01
  6.8605429e-01
 -2.8019890e-01
  3.8295339e-03
 -2.6513090e+00
 -2.5838206e-03
  1.8058406e-02
 -6.5306562e-04
  7.1715778e-01
 -1.4649092e+00
 -4.2093191e-01
 -3.3194378e-02
 -8.8548976e-01
 -2.1385887e+00
  2.5705236e-01
 -1.4999993e-01
  4.4620800e-04
 -4.9158141e-01
  7.9063457e-01
 -8.0853075e-01
 -1.2327367e+00
  1.1667461e+00
 -3.0762158e-02
  4.0166137e-01
  1.7734776e+00
  1.9324832e-02
 -2.2755459e-01
  4.1639186e-03
 -4.5553227e-03
  2.1907783e-01
 -3.1419304e-01
 -3.4250230e-02
 -2.2331665e+00
  1.2148046e-01
  1.3590788e+00
  9.7414833e-03
  3.3800897e-01
 -9.8805845e-02
 -5.4485131e-02
  1.5448464e+00
 -1.2868947e+00
  6.6787511e-01
  1.2271235e-01
  1.1808362e+00
  2.3041468e+00
 -2.2430866e+00
 -1.3737248e-01
  1.6153313e+00
 -3.7870523e-02
  5.2266479e-01
 -1.4199554e+00
 -1.4243260e-03
  2.4662182e+00
 -2.0818488e-01
 -3.2462158e+00
  1.9384027e-02
  6.5612417e-01
  8.5661149e-01
  4.0652308e-01
  1.0481648e+00
  5.2758525e-03
  1.0344752e-01
  4.5848028e-03
 -1.2538018e+00
  2.4215730e-01
  1.3848801e+00
  6.5036997e-04
 -1.2094980e-01
 -1.1721680e-01
  1.9591128e+00
  7.8307104e-01
  2.1668030e-02
 -2.1557909e-01
  1.0453386e+00
 -8.1760937e-01
 -2.4262607e-01
  5.0865312e+00
  3.9979902e-01
 -6.1250985e-01
 -2.9049200e-01
  9.0520734e-01
  4.8034558e-01
 -1.3072441e+00
 -7.5558811e-01
 -7.0607215e-02
  4.4914678e-01
  1.7940560e-02
  1.9505781e-03
  2.1189485e+00
  3.6782560e-01
  9.4856834e-01
  2.9110128e-01
 -1.4223162e+00
  1.7134466e+00
 -7.2520638e-01
 -6.5864936e-02
  6.0018111e-02
  3.2748532e-01
  5.3574085e-01
 -2.8063618e-03
  8.9329973e-02
 -4.1722065e-01
  1.7432293e+00
  1.8626592e-01
  1.5286837e+00
  2.3654264e-03
  1.3947240e-01
 -7.7003196e-02
  2.7913669e-01
  1.3217920e-01
  3.0539289e-01
 -4.8104903e-01
  7.5106198e-01
  7.0480436e-02
  6.5180743e-01
  1.5630104e-01
  1.2116311e-01
 -8.1831012e-03
 -4.5019177e-01
  1.1233278e-01
  3.2193702e-02
  1.9941656e-01
  1.7033799e-01
  4.9667144e-03
 -3.7526810e-01
  3.0255109e-01
 -5.4649077e-02
 -2.6655723e-03
 -1.5581363e-03
 -3.6702707e-02
  6.8497412e-02
  6.5409963e-04
 -2.4874000e-01
  4.8639830e-03
  5.4148912e-01
 -6.1141835e-03
 -8.6293593e-03
 -2.5256908e-02
  5.8237375e-03
 -1.8913853e-01
 -2.3690185e-02
  1.8502121e-03
  1.7862489e-02
 -1.1710198e-01
 -6.5780717e-01
 -2.3415952e-03
  2.1852659e-02
 -2.5261480e-02
 -5.2952278e-01
  7.1198955e-02
  3.7571725e-02
  5.6633329e-01
  7.4021369e-01
  6.2282699e-01
  1.7306669e-01
 -3.9790219e-01
 -4.7487454e-03
 -2.2388980e-02
  3.8433918e-01
  3.7370577e-02
 -3.1658754e-01
 -1.0899020e-03
 -3.8504422e-01
 -3.3017569e-03
 -7.2017941e-03
  4.6564862e-03
  5.1783189e-02
 -1.6173066e-01
 -1.8466289e-01
 -1.1758530e-02
  6.8861209e-02
  1.7771858e-03
  1.1504931e+00
  1.0691882e-03
 -1.2078531e-01
 -1.1129761e+00
 -1.5983399e+00
  5.2220213e-01
  6.7003083e-01
 -1.1764374e+00
 -8.4915566e-01
  1.3766031e-01
  2.9133081e-01
 -8.4529251e-01
 -9.7921062e-01
 -1.4853112e-03
 -4.7917590e-01
 -1.3309491e-03
 -8.5823679e-01
  5.0999963e-01
  1.7236394e+00
 -3.2990068e-01
  1.2805274e+00
  8.5667688e-03
 -5.7781447e-02
  8.9445567e-01
 -4.1556880e-03
 -8.7180156e-01
 -1.1199753e+00
  7.9277279e-06
 -1.3304242e-01
 -6.9843334e-01
  3.0235076e-01
  3.7944553e+00
  1.0824058e-02
 -2.2607211e-02
 -8.3474815e-02
  1.2988647e-02
  3.3607540e-01
  1.8492181e-02
  1.3445810e+00
  4.1195875e-01
 -9.2892635e-01
 -5.9364080e-01
 -5.3224134e-01
  3.7426099e-01
 -3.3153594e+00
 -3.3816096e-01
  5.6568084e+00
 -1.5191034e+00
 -9.6353397e-02
  8.0406979e-02
 -2.5324962e-01
 -1.9477799e+00
  3.2943654e-01
  1.2091390e-02
  2.7102120e+00
 -4.4388291e-01
  9.5925009e-01
  4.3275335e-04
  4.5373264e-01
 -9.1713062e-03
 -1.8087226e-01
 -8.3101122e-03
  6.3325623e-03
  8.3059317e-01
  8.9428651e-01
  6.6596437e-03
 -3.3692211e-01
 -3.3428311e-01
  3.8623866e-03
 -5.0870292e-03
  3.8973060e-02
  4.6755236e-01
  2.6761895e-04
  1.8378512e-03
  1.6919198e-02
 -1.8080224e-01
  2.0665845e-01
  8.8782739e-03
  8.4529209e-01
  6.9265056e-04
 -1.2758210e-01
  7.4662892e-03
 -3.0867842e-01
 -2.8682030e-03
 -1.3404104e-02
 -2.9047737e-03
  5.0094206e-04
  1.3589045e-02
 -4.5425263e-03
  6.3157432e-02
 -3.4254315e-01
  1.1255759e-03
 -2.2753461e-03
  6.2725469e-03
 -7.1362564e-03
 -9.5317876e-03
 -4.7775097e-03
  4.2872489e-03
 -9.0797758e-03
  3.7582794e-03
 -1.0664581e-02
 -2.5025550e-02
  1.4173290e-04
 -2.8114116e-01
  1.4017785e-03
 -7.8074895e-03
 -1.2740799e-02
  1.4264125e-04
  4.8469678e-03
 -3.0768610e-04
  9.5066077e-01
 -8.3571244e-03
 -1.5497796e-03
  3.1077296e-03
 -2.1553950e-02
  3.1810247e-03
 -1.1166687e-03
 -1.5281074e-01
  8.2665067e-03
 -8.6916692e-04
  7.5725728e-04
  4.6350542e-04
  5.9467875e-03
 -8.2318330e-01
  2.4581575e-03
  3.4783310e-03
 -1.2264326e-02
 -1.1330731e-03
 -7.2133960e-03
 -1.0592331e-02
 -7.9780566e-03
 -4.1382390e-04
 -8.9389086e-02
 -1.4408017e-02
 -3.6139968e-03
  7.2811609e-03
 -2.1521327e-01
  2.5024762e+00
 -3.9937019e-01
 -1.1793395e+00
  1.8550078e+00
 -8.1766874e-01
 -2.4260728e+00
 -7.8104961e-01
  2.2654191e-01
 -2.9693589e+00
  1.0075357e+00
 -6.4817303e-01
  1.1086675e+00
  7.1715200e-01
  1.6663343e-01
 -9.6120137e-01
 -1.0239440e+00
  5.7547224e-01
 -4.9760830e-01
 -7.4450130e-04
 -2.0783769e-01
 -2.9779375e-01
 -9.1412663e-01
 -6.1620075e-01
 -1.0581451e-03
 -5.9228420e-02
  4.0144420e-01
  2.1310868e+00
  1.4802439e+00
 -2.5348024e+00
 -7.8055531e-01
 -2.5872595e+00
 -6.8925709e-02
  9.4971150e-02
  6.0881251e-01
  1.8844419e-04
 -1.4330415e-01
  1.7666794e-01
 -1.0962333e-01
  4.9550503e-01
 -4.6289733e-01
  6.5717146e-02
  1.3611521e+00
 -5.0796769e-03
 -1.0617127e+00
  2.2265087e-01
 -9.6257053e-02
 -4.1896537e-01
 -5.9309728e-02
  1.3284141e+00
  1.0531907e+00
 -1.1330991e+00
  1.1630410e+00
  1.0710697e+00
 -3.5677934e-01
 -8.0748606e-01
  4.1093903e+00
  1.0300744e-02
 -1.5827134e-03
  5.9147526e-02
  2.7241705e-03
  1.0675191e+00
 -1.8810518e-01
 -3.9772400e-01
  5.3287625e+00
 -3.3475151e-03
  1.9034365e+00
  6.1632383e-01
  5.6797594e-01
  1.7826960e+00
  7.3964196e-01
  1.1090928e+00
 -9.8247482e-03
  2.1736543e-01
  1.2085795e+00
 -1.3379267e+00
 -1.7046355e+00
  1.3336945e+00
 -1.1380339e+00
  2.5983161e-01
  1.7096101e+00
 -1.2999790e-03
  1.1549325e-01
  2.2333445e-02
  4.5444223e-01
 -7.0851994e-01
  1.1662341e+00
 -6.7001139e-04
  7.3248309e-01
 -2.0428766e-01
  3.2359985e-01
  1.6741250e-01
 -2.6927034e-03
 -9.4030625e-01
  8.4835745e-02
 -3.5789330e-03
 -5.3623572e-02
 -1.1314456e+00
 -1.3779595e-03
 -3.4683631e-04
  1.1679408e-03
  9.4983917e-01
 -4.4915383e-04
  4.8266663e-03
 -1.4455450e+00
  6.8377616e-04
  1.8705614e+00
 -2.8626977e-03
  3.4544258e+00
  9.8050274e-03
  1.5097611e-01
 -2.2016163e-03
 -2.1083003e-01
 -1.3327096e-01
  1.3255936e+00
  4.9684590e-01
  1.3454269e-01
  1.0463401e+00
 -2.2882201e-01
  1.5538791e-01
 -1.7589281e-03
  5.8808208e-01
 -2.7215369e-03
 -6.9114112e-04
 -5.3813642e-01
 -7.6694284e-03
 -6.5778270e-03
 -9.1615856e-02
 -1.6084710e-02
 -6.2107872e-03
 -9.2254896e-03
  2.2835906e+00
 -1.1016323e-02
 -8.0840173e-04
  1.0999746e+00
 -6.6038758e-01
 -1.5081362e+00
  1.5518014e+00
  1.8173574e+00
  6.6169697e-01
  1.2575463e+00
 -1.1463961e-01
 -1.9490511e+00
 -1.9920693e-01
 -3.7764475e-01
  1.3740484e+00
  7.7063793e-01
 -8.9643180e-01
  1.0556371e-01
 -3.9713643e-03
  7.9186660e-01
 -3.8393763e-01
  4.8712856e-01
 -1.3169168e+00
 -3.0637121e-01
 -8.3932275e-01
  7.5720978e-01
  8.2607064e-03
  1.5109040e-02
 -3.4607243e-02
  4.9245400e+00
  5.0130188e-03
  4.7189668e-02
  7.7072829e-03
  1.1579975e-02
  2.5403130e+00
  6.2960009e-03
  1.1013590e+00
  1.1627992e+00
  6.3518369e-01
 -2.5251743e-03
 -2.3655550e-01
 -3.6406329e-01
 -3.2839144e-03
 -3.4039400e-03
  4.9720493e-01
  4.5251137e-01
 -1.9647721e-03
  1.0681784e+00
 -3.2499999e-01
  1.3055736e+00
 -2.0127300e-02
  5.0608996e-02
  7.4353809e-03
  2.7739242e-01
  1.6029454e-03
 -1.1730082e-01
 -3.9832506e-01
 -3.9967206e-01
  3.0625346e-01
  1.1072193e+00
  1.3079778e+00
 -1.7506343e-05
  8.9893565e-03
  6.0501522e-01
 -1.1243762e-02
 -4.0460043e-03
 -1.9148862e-01
  9.4144589e-01
 -1.7243823e+00
  2.2701612e-03
 -2.4401398e-02
 -1.5170346e+00
  2.5874355e-01
 -2.2208610e-01
  4.3840227e-03
 -6.7992508e-01
 -1.9202451e+00
 -5.1148361e-01
  1.0203762e-01
 -3.5644031e-01
  2.2631051e-01
  5.1991921e-02
 -1.1770771e+00
  1.4847752e+00
  2.9300505e-01
  4.6741867e+00
  2.6814114e-02
 -9.2845559e-02
 -5.4970717e-01
 -3.0967107e-01
 -1.0200185e+00
 -1.0649006e-01
  2.2995241e+00
 -1.7065665e-03
  9.3758613e-02
  9.3672824e-01
  3.5978870e-03
 -2.3938745e-02
  1.4801377e-03
  1.0418597e-01
 -2.6760702e+00
 -5.0270176e-03
 -3.1048745e-01
 -3.8617700e-01
 -3.2289252e-03
  2.2769567e-04
  9.3943584e-01
 -1.8298347e-02
  3.9770088e-01
  4.3477002e-01
  2.1673295e+00
 -2.0365207e-01
 -1.0088884e-03
  9.3148425e-02
  9.9942021e-02
 -1.4991181e+00
 -7.1728247e-01
 -5.5138934e-02
  3.3912316e-01
  6.1858773e-02
  1.5626819e+00
 -1.5340425e+00
 -8.7281883e-01
 -8.9137565e-04
 -6.2452936e-01
  1.7954315e-01
 -4.1331920e-01
  5.1123919e-03
 -8.0135912e-03
 -1.1668357e-01
  1.6829660e-02
 -1.9200356e-01
 -2.5621863e-02
  3.4957100e-03
  4.4413829e-01
  1.7125567e-02
 -4.4159340e-03
  6.3676769e-03
 -3.9918008e-03
 -4.4501922e-03
 -5.9410525e-03
 -1.0518090e-01
 -2.9837179e-01
 -7.6523775e-01
 -2.6749063e+00
 -6.7674464e-01
  4.8148566e-01
 -1.5644085e-02
  4.4385530e-02
 -3.2497637e-02
 -3.2926545e-02
  9.7153090e-02
 -1.1848119e+00
  1.7413907e+00
  4.4220644e-01
  2.5408526e-03
  2.2842340e-01
  1.7936319e-01
 -1.3989969e-03
 -4.6747747e-01
  1.0501899e+00
 -4.5206780e-03
 -1.6947022e-01
  1.3264588e-03
 -1.6142612e-02
  7.2014402e-03
  4.6687245e-01
  7.4971910e-03
 -4.4184140e-04
 -3.2773249e-02
  4.0984294e-01
  4.7086543e-01
  7.2900331e-01
  1.5523410e-03
 -4.9149707e-01
 -1.1563687e-01
  2.0362014e-01
  4.7751325e-01
  2.3897542e-02
  1.7855580e-01
  8.1791251e-04
  4.8105404e-01
  4.1967171e-01
 -4.9547738e-01
  4.6415208e-04
 -2.1082814e-01
 -2.2562127e+00
  4.0832341e-01
 -9.0064466e-02
  1.0146621e+00
  8.5233206e-01
  6.9249183e-01
 -4.8868212e-01
 -9.0023428e-03
  1.5435462e+00
  1.0186441e-02
  1.5267690e-01
  5.4825312e-01
 -2.6214751e-03
 -3.2245599e-02
  1.2101013e-04
  1.8507777e-01
 -3.9840218e-01
  1.3023452e-01
  2.0785823e-02
 -1.4493510e-02
 -1.9338608e+00
  1.9078878e-03
  6.4509814e-03
  2.9602237e-02
 -8.9770901e-01
  1.9993402e-01
 -4.7229269e-01
 -4.8258469e-01
  1.9376651e+00
 -1.1969399e-01
  9.9244756e-01
  9.4162804e-01
  4.4720116e-01
  2.4677096e-01
  1.0345656e-01
 -1.5128909e-02
 -1.6347142e-02
 -7.1044074e-04
  7.0050540e-03
  5.9906924e-03
  6.0030931e-01
  8.9197612e-01
  2.6271516e-01
  1.9980157e-02
 -4.5843175e-01
  2.4168886e-02
  5.4155206e-03
  1.1836746e-02
  1.5510966e+00
 -1.2100029e-03
 -3.7978423e-01
  1.6522701e-01
  2.6484036e-03
 -4.5688797e-02
  1.3583306e+00
 -1.0561631e+00
  1.1187371e+00
  1.0137068e+00
  2.9878037e-02
  7.4839211e-01
  1.8417406e-03
 -6.7946134e-04
  4.9385238e-01
  3.0326293e+00
  1.0379777e+00
  8.0403847e-01
 -9.4602760e-03
  1.9483001e+00
 -1.3796209e+00
 -3.8099015e-01
  4.5222440e-01
 -3.3129552e-01
 -3.3946396e-03
 -7.0669377e-01
  2.7762280e+00
 -2.5535252e-02
  1.4911314e+00
 -9.2965871e-01
 -3.0355039e-01
 -9.9010938e-01
  3.6943846e-04
 -3.1174994e-01
  3.9679888e-03
 -2.3293796e-03
 -1.6733903e-02
  3.8402530e-03
 -5.7693729e-03
 -3.7586023e-04
 -4.6514045e-03
  9.6481758e-01
  3.0556307e-03
  1.5858406e-03
  2.8310022e-03
 -3.9722821e-01
  6.4893746e-01
 -2.0413418e-01
  5.0683110e-03
  5.0840359e-03
 -2.1341605e+00
 -6.1998006e-02
  9.5233452e-03
 -3.1689499e-03
  3.2264774e-03
  2.6510873e-01
  6.8497011e-03
  5.6356873e-02
 -1.3578913e-01
  5.6521660e-01
  5.0249881e-01
 -1.6260221e+00
 -7.3105848e-01
  1.7432290e-03
  3.9755348e-03
  3.4331113e-02
 -1.6122852e-02
 -6.3400017e-03
  2.8574097e-03
  1.1988843e-02
 -6.9524581e-04
  8.4317392e-03
  1.2035842e-02
  6.2924400e-03
 -9.8869845e-04
 -6.3063353e-02
 -5.3713508e-02
 -4.6767836e-04
 -1.4130648e-03
 -7.4668322e-03
 -1.8290967e-03
  3.3063337e-03
  5.2727298e-03
 -2.9197602e+00
  7.7930451e-03
  2.2657776e-02
 -2.5864765e-03
  7.6849952e-02
 -4.5200258e-02
  3.2732427e+00
  1.5504545e-02
  1.4341356e-03
  7.3540066e-03
  1.8753667e-03
 -4.0106964e-03
 -5.8073882e-02
 -3.4690258e-01
  6.6550029e-04
  1.6533827e-02
 -2.9890602e-03
 -3.3463836e-03
 -2.9343508e-02
  3.3097884e-05
 -4.5585595e-03
  4.1788784e-03
 -1.7297909e-01
  9.1768429e-03
 -6.0862317e-03
 -1.1805953e-02
  2.2642214e-03
  5.0700940e-03
  1.1682841e+00
  9.4490021e-01
  1.9767601e+00
  2.1655402e+00
  1.9259598e+00
 -1.4978944e+00
  1.7154224e+00
 -3.0615921e+00
 -5.1870387e-02
 -1.3549793e+00
  2.2289078e+00
 -1.7926450e-01
 -2.1886616e+00
  1.3041414e-02
 -2.7723140e-01
 -7.9977121e-03
 -3.1351428e-03
  4.4909921e-01
 -1.1901778e+00
 -4.0880027e-03
  2.7481818e-01
 -1.4630334e+00
 -4.7509974e-01
  5.1702388e-02
 -6.5063730e-02
 -1.3341206e-02
  3.8642889e-01
 -4.0870449e-03
  9.0237111e-01
 -9.7153131e-03
 -8.0481839e-01
 -1.7338945e+00
  2.4861258e-01
 -2.0702739e+00
 -1.3285913e+00
 -6.0553243e-04
 -5.6872129e-01
  1.1823535e+00
 -8.7505080e-02
 -1.1683494e+00
 -2.5745649e+00
 -6.1344659e-01
 -5.3975686e-02
 -4.4762957e-01
 -4.4381618e-01
 -6.6789597e-01
  5.8887929e-01
  6.4708292e-02
  1.2410870e+00
  2.7634425e-02
  7.8052700e-02
  1.2018639e+00
  4.9948609e-01
  1.1034073e+00
 -7.4365777e-03
 -1.0467986e+00
  1.5031811e+00
  6.9949799e-03
 -9.2557468e-02
 -2.7227160e-02
  5.4539470e-03
  1.9971575e-01
  1.3238977e-01
  1.1735717e-03
 -6.4707175e-02
 -3.9547984e-02
 -4.7461493e-03
  5.7995025e-02
  9.1939298e-03
 -4.8748142e-01
  2.4446032e-03
 -1.2122024e-02
  3.0579817e-02
  3.5013522e-06
  6.5720174e-04
  1.0838083e-02
  2.2490947e-02
  2.0716515e+00
  1.8397246e-03
  5.5321800e-03
 -2.5462140e-03
  1.4667742e+00
 -1.4270109e-03
 -1.0621994e-02
 -7.4052078e-01
 -9.5823337e-04
 -4.8563997e-03
 -6.6787150e-04
 -4.9975151e-03
  4.8553422e-03
 -1.6680763e-03
  1.4502325e-02
 -9.4154626e-03
 -5.2638166e-03
  4.0462925e-03
  7.2886217e-03
 -1.1072129e-03
 -1.9148173e-02
  1.9658176e-02
  2.3978558e-01
  5.5558924e-02
 -1.1507069e-03
  2.4003519e-05
  1.3133793e-02
  7.7239244e-04
  5.7174689e-03
 -1.6538832e-02
 -1.0673379e-02
  7.6677010e-04
 -2.5440729e-04
  1.8960236e-01
 -9.6945214e-01
 -3.6963143e-03
  3.2428429e-01
 -1.1593717e-03
 -2.1496553e-03
 -4.5774836e-04
 -6.4416140e-01
 -1.3026306e-02
  7.6272534e-03
 -5.4824294e-04
 -3.0072508e-03
 -7.3405551e-03
 -2.6265634e-03
 -1.1043581e-02
 -2.9144899e-03
 -3.7207452e-03
 -4.9642244e-01
  6.4482670e-03
  1.9486051e-03
 -1.0759870e+00
  3.5488503e-03
  1.0325747e-03
  9.9207675e-03
 -4.6480971e-04
  1.8504129e-01
 -4.2095012e-04
 -4.2113494e-03
 -1.1696798e+00
  2.2295506e-01
 -1.2628644e-03
  3.3903502e-02
  4.2135900e-01
  1.0013574e+00
 -2.8830841e-01
 -5.2862540e-03
 -8.8583928e-01
  1.6278425e-03
 -2.2912875e-02
  8.6290347e-05
  4.6318537e-03
  1.5866498e+00
  1.1233399e-02
  1.6113663e-03
 -4.4353385e-03
  1.0893055e-02
 -3.1821763e-03
 -2.7263170e-01
  1.9776328e-01
  1.2681265e-02
 -2.2497843e-03
 -3.7465643e-04
 -6.8897102e-04
  2.0849560e-01
 -1.1863489e-01
  1.1986937e-01
 -5.0363112e-03
  2.0455450e-03
  9.0426588e-03
 -2.3542882e-03
  1.1765622e-02
  6.8774045e-02
 -1.6467157e-01
 -8.0931280e-03
 -8.3711633e-04
  4.2035067e-01
 -8.7242842e-01
  2.5725386e-01
  2.7434269e-01
 -1.9251052e-03
  1.3757024e-02
 -9.6623756e-02
  1.4717731e-03
  2.0249374e+00
  7.5055589e-03
  1.8589216e-01
  1.0969046e-01
  9.0277769e-02
  8.1710104e-04
  1.1718977e-03
  5.1041524e-04
 -1.2957498e+00
 -3.9159598e+00
  6.4614587e-03
  2.5409453e-03
  4.5359354e-03
  9.3689766e-03
  8.5926615e-03
 -4.2636595e+00
 -5.7984790e-04
  3.2822210e-03
  4.3425819e-01
  6.7902617e-02
  8.9805992e-03
 -3.7555203e-01
  2.4618485e-03
 -1.6054355e-01
 -6.9997501e-01
  4.0361831e-01
  8.6367613e-01
  1.2655376e+00
  7.7157818e-02
  1.2678894e+00
  1.4903580e+00
 -2.3859644e+00
  1.8165923e+00
  7.5508100e-01
 -2.8231579e-03
 -1.2625352e-01
  2.2933604e-04
 -1.3500229e+00
 -6.1504599e-02
 -1.4327471e+00
  4.0362719e-02
 -4.0995097e-01
  1.2963563e+00
  9.5098220e-02
  6.6757870e-01
  1.7249102e-03
 -7.7367157e-02
  4.9213212e-02
 -1.6349267e-02
  8.2661462e-01
 -2.0141325e+00
  4.4912454e-02
  2.0721848e-03
  1.2152816e+00
  1.4091719e+00
  2.1969551e-01
 -8.0788294e-03
 -3.1776091e-01
 -1.6405844e-03
 -1.9200234e-01
 -2.4767306e-01
  6.3740677e-01
 -9.8619319e-02
  6.5617788e-01
 -6.2252432e-02
 -4.8462622e-02
  5.6912613e-01
 -9.3691990e-02
 -2.9283842e-01
  2.7524181e-02
 -9.3881184e-01
 -2.6461402e-01
 -4.2049351e-01
  2.5797987e-01
  8.9467001e-01
  4.7717296e-02
  1.2819608e-01
  2.3315439e+00
  1.4829095e-03
  3.9214119e-03
  1.0201468e-01
 -1.0201361e-02
  6.1012795e-03
 -2.2054347e-01
  3.2989653e-03
  5.4122356e-04
 -5.1046312e-02
  2.6748067e-04
 -2.2546817e-02
  8.5450035e-01
  4.6954760e-03
  3.0917355e-01
 -2.3361230e-03
 -3.0342120e-04
  1.2775306e-02
  1.6404985e-03
  9.8906588e-03
 -1.8157760e-04
  1.1839558e+00
  5.1165530e-03
 -1.1460280e-04
  6.0501844e-01
  1.2104858e-03
 -2.7893187e-02
  5.7198369e-04
  2.6837553e-04
  9.0994017e-04
  4.4049021e-02
 -1.7572438e-02
  1.0581888e-03
  2.7817995e-03
  6.3196407e-04
 -4.2713131e-03
 -2.4666227e-03
  6.6712010e-03
  8.1843352e-03
 -5.5842930e-01
  1.9363850e+00
 -1.1774960e+00
 -5.7363468e-03
  1.3779786e+00
 -1.1380296e-03
  3.1170407e-03
  8.0788303e-03
 -4.0661544e-01
  4.3267179e-03
  4.7836851e-04
 -5.8425153e-03
  1.2790415e-03
  7.1126828e-04
  1.0354201e-03
  5.5108324e-04
  5.9497328e-03
  5.2601234e-03
  1.2713534e+00
  5.2125990e-01
 -8.0227032e-03
  4.4126420e+00
  4.5449904e-04
 -5.8373930e-06
 -1.1345436e-03
 -1.1518948e-03
 -7.4649733e-03
 -2.4996627e-02
 -4.8784292e-03
  1.5421936e-02
  1.6431394e-03
 -2.3550976e-02
  4.1599865e-03
  1.5039822e-03
  8.9176901e-04
 -1.1554343e-01
 -1.8972818e-02
  3.1073759e-03
 -3.9965682e-02
 -1.9658834e-02
  6.0343321e-02
  7.2880250e-01
 -4.2551775e-02
 -7.0393607e-02
  4.0031797e-01
  8.0728704e-01
 -3.3839755e-02
  1.2416785e+00
  2.3984065e+00
 -1.1407786e-01
  1.3851178e-01
 -4.0361759e-01
  1.0792638e-01
  1.7837728e+00
 -3.6631294e-03
 -4.3197247e-01
 -1.5602304e-01
  1.3294119e+00
  4.8518914e-01
 -7.4284506e-01
 -2.6135373e-01
  5.3956282e-01
  5.6996819e-02
 -5.0224948e-01
 -5.9680039e-01
 -2.7175500e+00
  2.2339332e-01
  2.2376578e+00
  5.8965516e-01
  8.2285590e-03
 -3.4104583e-01
  8.2847439e-02
  8.5144526e-01
 -2.0051372e+00
 -5.3434688e-01
  2.0669697e-01
 -1.0168319e+00
 -2.5679702e-01
 -1.5493172e-01
 -5.0499749e-01
  5.9720665e-01
  1.6361061e+00
  3.3837721e-01
 -2.8673980e+00
 -3.6120149e-01
 -4.3732542e-01
  1.4602760e+00
 -1.8355999e+00
  1.0691468e+00
  4.1007212e-01
 -4.5837799e-01
 -1.8280083e-02
  9.2088884e-01
  3.1565166e-01
 -8.2303387e-01
  3.8142219e-01
  9.4091082e-01
 -7.5942665e-01
 -2.1103563e-02
  1.0547301e+00
 -1.7697057e-04
  2.6991565e-04
 -1.0940406e+00
  1.2414643e+00
 -1.1953489e+00
  2.5097358e-03
  1.1136948e+00
  5.3894979e-01
  1.9090841e-02
 -6.0132903e-01
 -1.0307988e+00
 -1.3805796e+00
  1.5662905e+00
 -9.1603297e-01
  1.8242470e+00
  3.7496340e-01
  1.0514661e+00
 -1.2229441e+00
 -3.5631433e-01
 -1.3783123e+00
  2.7158840e+00
  3.8416186e-01
  3.6429740e-02
  3.0867192e-01
  6.5525331e-02
 -3.8032614e-02
 -3.2475901e-01
 -6.3120562e-01
 -5.7079262e-01
  5.6788683e-01
  4.5854114e-02
 -5.5290484e-01
  1.0180259e+00
 -1.6653328e+00
  9.2424172e-01
 -2.4167515e-01
  8.4055758e-01
 -2.4772419e-01
 -2.0270224e+00
 -9.3116927e-01
  2.8716314e+00
  9.8407406e-01
  3.4271008e-01
 -7.6621240e-01
 -4.5785531e-02
 -9.0027714e-01
 -4.4612026e-01
 -2.9411948e-01
  1.2195505e+00
 -6.9425601e-01
  4.1830722e-02
 -1.3490298e+00
  2.8016251e-02
  2.4597476e+00
 -1.9303581e-01
  2.9165554e-03
 -4.0637076e-01
  2.9201698e+00
  5.0844349e-02
  2.3461060e-01
  4.4944581e-01
 -1.1646397e-01
  1.4864424e+00
  4.2224001e-02
 -6.7580998e-01
  1.5473776e+00
  6.9172252e-03
  5.2685846e-02
 -7.8702578e-03
  7.0218641e-01
  8.1709391e-01
  9.9570757e-01
  8.7599969e-03
  4.1589301e-04
 -2.1213342e-01
  5.4266262e-01
  1.0016941e+00
  1.2264656e+00
 -1.5573306e+00
  2.2609642e-01
 -3.0340264e+00
  6.2262869e-01
 -1.1921203e+00
  8.9220595e-01
 -2.1526973e+00
 -5.0228286e-01
 -2.1022346e+00
  3.9924146e-03
  1.3816687e+00
  1.0872176e+00
 -1.9794592e+00
  4.9091411e-01
  6.6929466e-01
  2.7825007e-01
  4.2762745e-02
 -8.2469732e-01
  4.2955062e-01
  5.7737798e-05
  3.6502499e-02
 -8.1795096e-01
 -1.0342427e-02
  1.4432146e-03
 -1.6008819e+00
 -5.5150962e-01
  4.8647842e-01
 -2.2042978e-01
 -9.2447150e-01
 -1.3902047e+00
  3.2249251e-01
 -1.2025724e-03
 -1.1187637e+00
  2.0316140e-01
 -1.0489654e-02
 -7.0778295e-02
  1.5973902e-03
  4.1484449e-02
 -1.9728220e-01
  4.5409813e+00
 -3.2946551e+00
  8.8188833e-01
 -3.5499087e-01
 -9.2037392e-01
 -4.7403851e-01
 -9.8972674e-03
  1.8787223e-03
  2.9195366e+00
  9.0555960e-01
 -7.5320137e-01
 -3.6983931e-01
  1.0695605e+00
 -5.1362866e-01
  2.0126922e-02
  1.2941425e-01
  1.3388091e+00
  2.7619323e-03
 -5.5601206e-03
  8.7146230e-02
 -1.1206841e-02
  1.0875676e-01
 -8.7165529e-01
 -1.2039006e+00
 -1.8000705e-02
  1.0859682e-02
  2.8738883e-01
 -1.7920670e-01
 -8.3888657e-02
  1.0009794e-03
  9.3189502e-01
  1.9896196e-01
 -3.3633697e-01
  1.3158800e-01
 -4.9110475e-01
 -2.5907118e+00
 -2.2005687e+00
  1.1862829e+00
 -4.3267459e-01
 -3.4089766e-03
  2.8582413e+00
 -3.2145099e-03
 -2.5445737e-02
 -1.2757102e-03
  2.1922714e-03
  1.6388715e-03
 -6.0062809e-04
 -7.4455435e-03
  7.3527294e-01
 -3.9405864e-01
 -2.4293248e-02
 -4.5045414e-03
 -2.9228250e-03
 -3.2468754e-01
 -9.5095560e-03
 -1.4587055e-02
 -7.3142838e-01
 -9.9907868e-02
  1.0612639e-02
 -1.9233706e-03
 -7.3589897e-04
  1.1821432e-02
 -2.1575633e-03
 -3.0717837e-02
  2.2291208e-03
  8.0344770e-03
  8.5333157e-03
 -1.1181029e-02
  4.9357209e-01
  1.7562199e-02
 -4.0322389e-03
  6.4494149e-03
  3.6642721e-01
  4.1894910e-01
  7.0853269e-01
  5.5777505e-03
 -7.5355913e-03
 -2.7870581e-01
 -6.8286648e-03
 -4.5704100e-01
  1.5990818e-02
 -3.5907540e-02
  1.5438606e-03
  2.7573574e-01
 -1.0839113e-01
 -8.8429816e-02
  1.0929914e-02
 -1.7342310e-02
 -6.6029793e-03
  2.9042249e-03
 -2.8251752e-04
  5.0007886e-01
  2.1200341e-01
 -2.1579126e-03
  9.9310018e-03
  1.5622403e-03
  5.8487868e-01
 -4.7421712e-01
 -1.2163582e-01
 -8.7293184e-01
 -1.0101814e+00
 -4.9070030e-01
 -9.2792445e-01
  9.0364277e-01
 -1.0882448e+00
  9.2807800e-02
  2.4681112e-02
  6.5469861e-01
  5.4453206e-01
 -5.7167828e-02
 -5.0524431e-01
 -3.1843066e-02
  1.5143397e-01
 -5.2219946e-02
 -1.7767246e+00
 -1.3133024e-03
  3.2460031e-01
 -2.3495105e-01
  7.8534478e-01
  1.0628729e-01
  1.4673281e-03
  9.9855793e-01
  7.1907067e-04
 -5.4308465e-03
  6.1437774e-01
 -1.7536458e-02
  1.3387973e+00
 -1.0379897e-01
 -2.3205109e-02
 -4.5612812e-01
  7.2363368e-03
 -6.1839125e-03
  1.0595100e+00
  2.1309347e-03
  2.0654812e-02
  1.2973976e-01
 -1.2614907e-01
 -6.8087783e-03
  2.8186772e-02
  8.5062219e-04
 -7.0914793e-01
 -1.5649954e-03
  1.4288814e-02
  2.5530189e-01
 -8.4524080e-03
  2.2437544e-01
 -1.0817367e+00
  3.7055951e-01
 -1.6406314e-01
  7.5894970e-01
  1.6463332e-02
 -1.7160606e-01
 -4.9338555e-01
  4.2754146e-03
 -1.5753189e-02
 -6.3363975e-03
 -1.7401423e-02
  6.4257667e-03
  7.6452079e-03
 -3.9349419e-01
  3.2017762e-03
 -2.9965073e-03
 -5.6443017e-02
 -3.0704960e-03
 -3.2209312e-03
  3.2147872e-03
 -5.4735035e-01
  1.4822559e-01
  1.0614032e+00
 -3.4423709e-01
  9.9092945e-03
  4.1777515e-03
  2.2902544e+00
  1.8729116e-03
 -1.8228873e+00
 -3.8710234e-03
  7.8631439e+00
 -1.9945947e-03
 -1.3658344e+00
 -2.5284002e-03
  3.7646699e-03
 -6.1418163e-05
  2.8290065e-02
  6.1414889e-03
  7.0999557e-01
 -1.9359433e-04
 -1.8347666e-02
  1.6049026e-03
